digraph Tree {
node [shape=box, style="filled, rounded", color="black", fontname=helvetica] ;
edge [fontname=helvetica] ;
0 [label="Grindhead <= 2.5\ngini = 0.26\nsamples = 9471\nvalue = [12699, 2346]\nclass = M", fillcolor="#e58139d0"] ;
1 [label="ACS3.Gmp_Parameters_ToolUpper_GrindingRunningMeter <= 320.47\ngini = 0.29\nsamples = 4732\nvalue = [6237, 1310]\nclass = M", fillcolor="#e58139c9"] ;
0 -> 1 [labeldistance=2.5, labelangle=45, headlabel="True"] ;
2 [label="ACS3.Gmp_Parameters_ToolUpper_GrindingRunningMeter <= 261.71\ngini = 0.36\nsamples = 1551\nvalue = [1851, 558]\nclass = M", fillcolor="#e58139b2"] ;
1 -> 2 ;
3 [label="THICK <= 0.74\ngini = 0.33\nsamples = 1335\nvalue = [1651, 436]\nclass = M", fillcolor="#e58139bc"] ;
2 -> 3 ;
4 [label="Grindhead <= 1.5\ngini = 0.32\nsamples = 1320\nvalue = [1651, 413]\nclass = M", fillcolor="#e58139bf"] ;
3 -> 4 ;
5 [label="ACS3.Gmp_Parameters_ToolUpper_GrindingRunningMeter <= 49.06\ngini = 0.22\nsamples = 648\nvalue = [899, 130]\nclass = M", fillcolor="#e58139da"] ;
4 -> 5 ;
6 [label="THICK <= 0.73\ngini = 0.05\nsamples = 207\nvalue = [324, 8]\nclass = M", fillcolor="#e58139f9"] ;
5 -> 6 ;
7 [label="ACS3.Gmp_Parameters_ToolUpper_GrindingRunningMeter <= 0.52\ngini = 0.08\nsamples = 117\nvalue = [182, 8]\nclass = M", fillcolor="#e58139f4"] ;
6 -> 7 ;
8 [label="ACS3.Gmp_Parameters_ToolUpper_GrindingRunningMeter <= 0.22\ngini = 0.44\nsamples = 3\nvalue = [1, 2]\nclass = a", fillcolor="#399de57f"] ;
7 -> 8 ;
9 [label="gini = 0.0\nsamples = 1\nvalue = [0, 1]\nclass = a", fillcolor="#399de5ff"] ;
8 -> 9 ;
10 [label="THICK <= 0.65\ngini = 0.5\nsamples = 2\nvalue = [1, 1]\nclass = M", fillcolor="#e5813900"] ;
8 -> 10 ;
11 [label="gini = 0.0\nsamples = 1\nvalue = [1, 0]\nclass = M", fillcolor="#e58139ff"] ;
10 -> 11 ;
12 [label="gini = 0.0\nsamples = 1\nvalue = [0, 1]\nclass = a", fillcolor="#399de5ff"] ;
10 -> 12 ;
13 [label="ACS3.Gmp_Parameters_ToolUpper_GrindingRunningMeter <= 2.26\ngini = 0.06\nsamples = 114\nvalue = [181, 6]\nclass = M", fillcolor="#e58139f7"] ;
7 -> 13 ;
14 [label="ACS3.Gmp_Parameters_ToolUpper_GrindingRunningMeter <= 2.12\ngini = 0.3\nsamples = 7\nvalue = [9, 2]\nclass = M", fillcolor="#e58139c6"] ;
13 -> 14 ;
15 [label="THICK <= 0.65\ngini = 0.18\nsamples = 6\nvalue = [9, 1]\nclass = M", fillcolor="#e58139e3"] ;
14 -> 15 ;
16 [label="gini = 0.0\nsamples = 3\nvalue = [6, 0]\nclass = M", fillcolor="#e58139ff"] ;
15 -> 16 ;
17 [label="THICK <= 0.68\ngini = 0.38\nsamples = 3\nvalue = [3, 1]\nclass = M", fillcolor="#e58139aa"] ;
15 -> 17 ;
18 [label="gini = 0.0\nsamples = 1\nvalue = [0, 1]\nclass = a", fillcolor="#399de5ff"] ;
17 -> 18 ;
19 [label="gini = 0.0\nsamples = 2\nvalue = [3, 0]\nclass = M", fillcolor="#e58139ff"] ;
17 -> 19 ;
20 [label="gini = 0.0\nsamples = 1\nvalue = [0, 1]\nclass = a", fillcolor="#399de5ff"] ;
14 -> 20 ;
21 [label="ACS3.Gmp_Parameters_ToolUpper_GrindingRunningMeter <= 35.93\ngini = 0.04\nsamples = 107\nvalue = [172, 4]\nclass = M", fillcolor="#e58139f9"] ;
13 -> 21 ;
22 [label="gini = 0.0\nsamples = 77\nvalue = [127, 0]\nclass = M", fillcolor="#e58139ff"] ;
21 -> 22 ;
23 [label="THICK <= 0.73\ngini = 0.15\nsamples = 30\nvalue = [45, 4]\nclass = M", fillcolor="#e58139e8"] ;
21 -> 23 ;
24 [label="gini = 0.0\nsamples = 27\nvalue = [45, 0]\nclass = M", fillcolor="#e58139ff"] ;
23 -> 24 ;
25 [label="gini = 0.0\nsamples = 3\nvalue = [0, 4]\nclass = a", fillcolor="#399de5ff"] ;
23 -> 25 ;
26 [label="gini = 0.0\nsamples = 90\nvalue = [142, 0]\nclass = M", fillcolor="#e58139ff"] ;
6 -> 26 ;
27 [label="THICK <= 0.74\ngini = 0.29\nsamples = 441\nvalue = [575, 122]\nclass = M", fillcolor="#e58139c9"] ;
5 -> 27 ;
28 [label="ACS3.Gmp_Parameters_ToolUpper_GrindingRunningMeter <= 213.1\ngini = 0.22\nsamples = 403\nvalue = [555, 79]\nclass = M", fillcolor="#e58139db"] ;
27 -> 28 ;
29 [label="THICK <= 0.74\ngini = 0.25\nsamples = 314\nvalue = [420, 72]\nclass = M", fillcolor="#e58139d3"] ;
28 -> 29 ;
30 [label="ACS3.Gmp_Parameters_ToolUpper_GrindingRunningMeter <= 212.23\ngini = 0.23\nsamples = 311\nvalue = [420, 65]\nclass = M", fillcolor="#e58139d8"] ;
29 -> 30 ;
31 [label="ACS3.Gmp_Parameters_ToolUpper_GrindingRunningMeter <= 177.95\ngini = 0.22\nsamples = 310\nvalue = [420, 62]\nclass = M", fillcolor="#e58139d9"] ;
30 -> 31 ;
32 [label="ACS3.Gmp_Parameters_ToolUpper_GrindingRunningMeter <= 123.45\ngini = 0.19\nsamples = 251\nvalue = [347, 42]\nclass = M", fillcolor="#e58139e0"] ;
31 -> 32 ;
33 [label="ACS3.Gmp_Parameters_ToolUpper_GrindingRunningMeter <= 122.74\ngini = 0.24\nsamples = 138\nvalue = [193, 32]\nclass = M", fillcolor="#e58139d5"] ;
32 -> 33 ;
34 [label="ACS3.Gmp_Parameters_ToolUpper_GrindingRunningMeter <= 64.67\ngini = 0.22\nsamples = 137\nvalue = [193, 28]\nclass = M", fillcolor="#e58139da"] ;
33 -> 34 ;
35 [label="THICK <= 0.73\ngini = 0.04\nsamples = 33\nvalue = [53, 1]\nclass = M", fillcolor="#e58139fa"] ;
34 -> 35 ;
36 [label="gini = 0.0\nsamples = 23\nvalue = [39, 0]\nclass = M", fillcolor="#e58139ff"] ;
35 -> 36 ;
37 [label="ACS3.Gmp_Parameters_ToolUpper_GrindingRunningMeter <= 49.64\ngini = 0.12\nsamples = 10\nvalue = [14, 1]\nclass = M", fillcolor="#e58139ed"] ;
35 -> 37 ;
38 [label="gini = 0.0\nsamples = 1\nvalue = [0, 1]\nclass = a", fillcolor="#399de5ff"] ;
37 -> 38 ;
39 [label="gini = 0.0\nsamples = 9\nvalue = [14, 0]\nclass = M", fillcolor="#e58139ff"] ;
37 -> 39 ;
40 [label="ACS3.Gmp_Parameters_ToolUpper_GrindingRunningMeter <= 65.06\ngini = 0.27\nsamples = 104\nvalue = [140, 27]\nclass = M", fillcolor="#e58139ce"] ;
34 -> 40 ;
41 [label="gini = 0.0\nsamples = 1\nvalue = [0, 3]\nclass = a", fillcolor="#399de5ff"] ;
40 -> 41 ;
42 [label="ACS3.Gmp_Parameters_ToolUpper_GrindingRunningMeter <= 91.55\ngini = 0.25\nsamples = 103\nvalue = [140, 24]\nclass = M", fillcolor="#e58139d3"] ;
40 -> 42 ;
43 [label="THICK <= 0.68\ngini = 0.31\nsamples = 49\nvalue = [67, 16]\nclass = M", fillcolor="#e58139c2"] ;
42 -> 43 ;
44 [label="gini = 0.0\nsamples = 23\nvalue = [41, 0]\nclass = M", fillcolor="#e58139ff"] ;
43 -> 44 ;
45 [label="THICK <= 0.7\ngini = 0.47\nsamples = 26\nvalue = [26, 16]\nclass = M", fillcolor="#e5813962"] ;
43 -> 45 ;
46 [label="gini = 0.0\nsamples = 10\nvalue = [0, 16]\nclass = a", fillcolor="#399de5ff"] ;
45 -> 46 ;
47 [label="gini = 0.0\nsamples = 16\nvalue = [26, 0]\nclass = M", fillcolor="#e58139ff"] ;
45 -> 47 ;
48 [label="ACS3.Gmp_Parameters_ToolUpper_GrindingRunningMeter <= 101.94\ngini = 0.18\nsamples = 54\nvalue = [73, 8]\nclass = M", fillcolor="#e58139e3"] ;
42 -> 48 ;
49 [label="ACS3.Gmp_Parameters_ToolUpper_GrindingRunningMeter <= 97.47\ngini = 0.07\nsamples = 20\nvalue = [28, 1]\nclass = M", fillcolor="#e58139f6"] ;
48 -> 49 ;
50 [label="gini = 0.0\nsamples = 10\nvalue = [14, 0]\nclass = M", fillcolor="#e58139ff"] ;
49 -> 50 ;
51 [label="THICK <= 0.64\ngini = 0.12\nsamples = 10\nvalue = [14, 1]\nclass = M", fillcolor="#e58139ed"] ;
49 -> 51 ;
52 [label="gini = 0.0\nsamples = 1\nvalue = [0, 1]\nclass = a", fillcolor="#399de5ff"] ;
51 -> 52 ;
53 [label="gini = 0.0\nsamples = 9\nvalue = [14, 0]\nclass = M", fillcolor="#e58139ff"] ;
51 -> 53 ;
54 [label="ACS3.Gmp_Parameters_ToolUpper_GrindingRunningMeter <= 106.72\ngini = 0.23\nsamples = 34\nvalue = [45, 7]\nclass = M", fillcolor="#e58139d7"] ;
48 -> 54 ;
55 [label="ACS3.Gmp_Parameters_ToolUpper_GrindingRunningMeter <= 104.02\ngini = 0.5\nsamples = 5\nvalue = [3, 3]\nclass = M", fillcolor="#e5813900"] ;
54 -> 55 ;
56 [label="ACS3.Gmp_Parameters_ToolUpper_GrindingRunningMeter <= 102.44\ngini = 0.38\nsamples = 3\nvalue = [3, 1]\nclass = M", fillcolor="#e58139aa"] ;
55 -> 56 ;
57 [label="gini = 0.0\nsamples = 1\nvalue = [0, 1]\nclass = a", fillcolor="#399de5ff"] ;
56 -> 57 ;
58 [label="gini = 0.0\nsamples = 2\nvalue = [3, 0]\nclass = M", fillcolor="#e58139ff"] ;
56 -> 58 ;
59 [label="gini = 0.0\nsamples = 2\nvalue = [0, 2]\nclass = a", fillcolor="#399de5ff"] ;
55 -> 59 ;
60 [label="THICK <= 0.68\ngini = 0.16\nsamples = 29\nvalue = [42, 4]\nclass = M", fillcolor="#e58139e7"] ;
54 -> 60 ;
61 [label="THICK <= 0.67\ngini = 0.38\nsamples = 11\nvalue = [12, 4]\nclass = M", fillcolor="#e58139aa"] ;
60 -> 61 ;
62 [label="ACS3.Gmp_Parameters_ToolUpper_GrindingRunningMeter <= 116.07\ngini = 0.24\nsamples = 10\nvalue = [12, 2]\nclass = M", fillcolor="#e58139d4"] ;
61 -> 62 ;
63 [label="THICK <= 0.64\ngini = 0.35\nsamples = 6\nvalue = [7, 2]\nclass = M", fillcolor="#e58139b6"] ;
62 -> 63 ;
64 [label="THICK <= 0.62\ngini = 0.44\nsamples = 3\nvalue = [1, 2]\nclass = a", fillcolor="#399de57f"] ;
63 -> 64 ;
65 [label="gini = 0.0\nsamples = 1\nvalue = [1, 0]\nclass = M", fillcolor="#e58139ff"] ;
64 -> 65 ;
66 [label="gini = 0.0\nsamples = 2\nvalue = [0, 2]\nclass = a", fillcolor="#399de5ff"] ;
64 -> 66 ;
67 [label="gini = 0.0\nsamples = 3\nvalue = [6, 0]\nclass = M", fillcolor="#e58139ff"] ;
63 -> 67 ;
68 [label="gini = 0.0\nsamples = 4\nvalue = [5, 0]\nclass = M", fillcolor="#e58139ff"] ;
62 -> 68 ;
69 [label="gini = 0.0\nsamples = 1\nvalue = [0, 2]\nclass = a", fillcolor="#399de5ff"] ;
61 -> 69 ;
70 [label="gini = 0.0\nsamples = 18\nvalue = [30, 0]\nclass = M", fillcolor="#e58139ff"] ;
60 -> 70 ;
71 [label="gini = 0.0\nsamples = 1\nvalue = [0, 4]\nclass = a", fillcolor="#399de5ff"] ;
33 -> 71 ;
72 [label="ACS3.Gmp_Parameters_ToolUpper_GrindingRunningMeter <= 134.0\ngini = 0.11\nsamples = 113\nvalue = [154, 10]\nclass = M", fillcolor="#e58139ee"] ;
32 -> 72 ;
73 [label="gini = 0.0\nsamples = 17\nvalue = [29, 0]\nclass = M", fillcolor="#e58139ff"] ;
72 -> 73 ;
74 [label="ACS3.Gmp_Parameters_ToolUpper_GrindingRunningMeter <= 134.13\ngini = 0.14\nsamples = 96\nvalue = [125, 10]\nclass = M", fillcolor="#e58139eb"] ;
72 -> 74 ;
75 [label="gini = 0.0\nsamples = 1\nvalue = [0, 1]\nclass = a", fillcolor="#399de5ff"] ;
74 -> 75 ;
76 [label="THICK <= 0.72\ngini = 0.13\nsamples = 95\nvalue = [125, 9]\nclass = M", fillcolor="#e58139ed"] ;
74 -> 76 ;
77 [label="THICK <= 0.68\ngini = 0.19\nsamples = 56\nvalue = [74, 9]\nclass = M", fillcolor="#e58139e0"] ;
76 -> 77 ;
78 [label="ACS3.Gmp_Parameters_ToolUpper_GrindingRunningMeter <= 173.94\ngini = 0.03\nsamples = 41\nvalue = [61, 1]\nclass = M", fillcolor="#e58139fb"] ;
77 -> 78 ;
79 [label="gini = 0.0\nsamples = 39\nvalue = [59, 0]\nclass = M", fillcolor="#e58139ff"] ;
78 -> 79 ;
80 [label="THICK <= 0.67\ngini = 0.44\nsamples = 2\nvalue = [2, 1]\nclass = M", fillcolor="#e581397f"] ;
78 -> 80 ;
81 [label="gini = 0.0\nsamples = 1\nvalue = [0, 1]\nclass = a", fillcolor="#399de5ff"] ;
80 -> 81 ;
82 [label="gini = 0.0\nsamples = 1\nvalue = [2, 0]\nclass = M", fillcolor="#e58139ff"] ;
80 -> 82 ;
83 [label="ACS3.Gmp_Parameters_ToolUpper_GrindingRunningMeter <= 166.47\ngini = 0.47\nsamples = 15\nvalue = [13, 8]\nclass = M", fillcolor="#e5813962"] ;
77 -> 83 ;
84 [label="THICK <= 0.68\ngini = 0.43\nsamples = 13\nvalue = [13, 6]\nclass = M", fillcolor="#e5813989"] ;
83 -> 84 ;
85 [label="gini = 0.0\nsamples = 4\nvalue = [0, 6]\nclass = a", fillcolor="#399de5ff"] ;
84 -> 85 ;
86 [label="gini = 0.0\nsamples = 9\nvalue = [13, 0]\nclass = M", fillcolor="#e58139ff"] ;
84 -> 86 ;
87 [label="gini = 0.0\nsamples = 2\nvalue = [0, 2]\nclass = a", fillcolor="#399de5ff"] ;
83 -> 87 ;
88 [label="gini = 0.0\nsamples = 39\nvalue = [51, 0]\nclass = M", fillcolor="#e58139ff"] ;
76 -> 88 ;
89 [label="THICK <= 0.72\ngini = 0.34\nsamples = 59\nvalue = [73, 20]\nclass = M", fillcolor="#e58139b9"] ;
31 -> 89 ;
90 [label="THICK <= 0.64\ngini = 0.46\nsamples = 33\nvalue = [36, 20]\nclass = M", fillcolor="#e5813971"] ;
89 -> 90 ;
91 [label="gini = 0.0\nsamples = 15\nvalue = [27, 0]\nclass = M", fillcolor="#e58139ff"] ;
90 -> 91 ;
92 [label="THICK <= 0.7\ngini = 0.43\nsamples = 18\nvalue = [9, 20]\nclass = a", fillcolor="#399de58c"] ;
90 -> 92 ;
93 [label="ACS3.Gmp_Parameters_ToolUpper_GrindingRunningMeter <= 204.24\ngini = 0.5\nsamples = 11\nvalue = [9, 9]\nclass = M", fillcolor="#e5813900"] ;
92 -> 93 ;
94 [label="THICK <= 0.67\ngini = 0.3\nsamples = 7\nvalue = [2, 9]\nclass = a", fillcolor="#399de5c6"] ;
93 -> 94 ;
95 [label="gini = 0.0\nsamples = 5\nvalue = [0, 9]\nclass = a", fillcolor="#399de5ff"] ;
94 -> 95 ;
96 [label="gini = 0.0\nsamples = 2\nvalue = [2, 0]\nclass = M", fillcolor="#e58139ff"] ;
94 -> 96 ;
97 [label="gini = 0.0\nsamples = 4\nvalue = [7, 0]\nclass = M", fillcolor="#e58139ff"] ;
93 -> 97 ;
98 [label="gini = 0.0\nsamples = 7\nvalue = [0, 11]\nclass = a", fillcolor="#399de5ff"] ;
92 -> 98 ;
99 [label="gini = 0.0\nsamples = 26\nvalue = [37, 0]\nclass = M", fillcolor="#e58139ff"] ;
89 -> 99 ;
100 [label="gini = 0.0\nsamples = 1\nvalue = [0, 3]\nclass = a", fillcolor="#399de5ff"] ;
30 -> 100 ;
101 [label="gini = 0.0\nsamples = 3\nvalue = [0, 7]\nclass = a", fillcolor="#399de5ff"] ;
29 -> 101 ;
102 [label="THICK <= 0.67\ngini = 0.09\nsamples = 89\nvalue = [135, 7]\nclass = M", fillcolor="#e58139f2"] ;
28 -> 102 ;
103 [label="gini = 0.0\nsamples = 38\nvalue = [63, 0]\nclass = M", fillcolor="#e58139ff"] ;
102 -> 103 ;
104 [label="THICK <= 0.68\ngini = 0.16\nsamples = 51\nvalue = [72, 7]\nclass = M", fillcolor="#e58139e6"] ;
102 -> 104 ;
105 [label="gini = 0.0\nsamples = 3\nvalue = [0, 4]\nclass = a", fillcolor="#399de5ff"] ;
104 -> 105 ;
106 [label="ACS3.Gmp_Parameters_ToolUpper_GrindingRunningMeter <= 245.07\ngini = 0.08\nsamples = 48\nvalue = [72, 3]\nclass = M", fillcolor="#e58139f4"] ;
104 -> 106 ;
107 [label="gini = 0.0\nsamples = 38\nvalue = [57, 0]\nclass = M", fillcolor="#e58139ff"] ;
106 -> 107 ;
108 [label="THICK <= 0.73\ngini = 0.28\nsamples = 10\nvalue = [15, 3]\nclass = M", fillcolor="#e58139cc"] ;
106 -> 108 ;
109 [label="ACS3.Gmp_Parameters_ToolUpper_GrindingRunningMeter <= 245.25\ngini = 0.49\nsamples = 4\nvalue = [4, 3]\nclass = M", fillcolor="#e5813940"] ;
108 -> 109 ;
110 [label="gini = 0.0\nsamples = 1\nvalue = [0, 2]\nclass = a", fillcolor="#399de5ff"] ;
109 -> 110 ;
111 [label="THICK <= 0.72\ngini = 0.32\nsamples = 3\nvalue = [4, 1]\nclass = M", fillcolor="#e58139bf"] ;
109 -> 111 ;
112 [label="gini = 0.0\nsamples = 2\nvalue = [4, 0]\nclass = M", fillcolor="#e58139ff"] ;
111 -> 112 ;
113 [label="gini = 0.0\nsamples = 1\nvalue = [0, 1]\nclass = a", fillcolor="#399de5ff"] ;
111 -> 113 ;
114 [label="gini = 0.0\nsamples = 6\nvalue = [11, 0]\nclass = M", fillcolor="#e58139ff"] ;
108 -> 114 ;
115 [label="ACS3.Gmp_Parameters_ToolUpper_GrindingRunningMeter <= 77.25\ngini = 0.43\nsamples = 38\nvalue = [20, 43]\nclass = a", fillcolor="#399de588"] ;
27 -> 115 ;
116 [label="ACS3.Gmp_Parameters_ToolUpper_GrindingRunningMeter <= 50.3\ngini = 0.07\nsamples = 18\nvalue = [1, 27]\nclass = a", fillcolor="#399de5f6"] ;
115 -> 116 ;
117 [label="THICK <= 0.74\ngini = 0.5\nsamples = 2\nvalue = [1, 1]\nclass = M", fillcolor="#e5813900"] ;
116 -> 117 ;
118 [label="gini = 0.0\nsamples = 1\nvalue = [1, 0]\nclass = M", fillcolor="#e58139ff"] ;
117 -> 118 ;
119 [label="gini = 0.0\nsamples = 1\nvalue = [0, 1]\nclass = a", fillcolor="#399de5ff"] ;
117 -> 119 ;
120 [label="gini = 0.0\nsamples = 16\nvalue = [0, 26]\nclass = a", fillcolor="#399de5ff"] ;
116 -> 120 ;
121 [label="THICK <= 0.74\ngini = 0.5\nsamples = 20\nvalue = [19, 16]\nclass = M", fillcolor="#e5813928"] ;
115 -> 121 ;
122 [label="ACS3.Gmp_Parameters_ToolUpper_GrindingRunningMeter <= 214.44\ngini = 0.2\nsamples = 12\nvalue = [2, 16]\nclass = a", fillcolor="#399de5df"] ;
121 -> 122 ;
123 [label="gini = 0.0\nsamples = 10\nvalue = [0, 16]\nclass = a", fillcolor="#399de5ff"] ;
122 -> 123 ;
124 [label="gini = 0.0\nsamples = 2\nvalue = [2, 0]\nclass = M", fillcolor="#e58139ff"] ;
122 -> 124 ;
125 [label="gini = 0.0\nsamples = 8\nvalue = [17, 0]\nclass = M", fillcolor="#e58139ff"] ;
121 -> 125 ;
126 [label="THICK <= 0.73\ngini = 0.4\nsamples = 672\nvalue = [752, 283]\nclass = M", fillcolor="#e581399f"] ;
4 -> 126 ;
127 [label="THICK <= 0.62\ngini = 0.3\nsamples = 443\nvalue = [564, 128]\nclass = M", fillcolor="#e58139c5"] ;
126 -> 127 ;
128 [label="THICK <= 0.62\ngini = 0.49\nsamples = 99\nvalue = [90, 67]\nclass = M", fillcolor="#e5813941"] ;
127 -> 128 ;
129 [label="ACS3.Gmp_Parameters_ToolUpper_GrindingRunningMeter <= 192.41\ngini = 0.12\nsamples = 65\nvalue = [90, 6]\nclass = M", fillcolor="#e58139ee"] ;
128 -> 129 ;
130 [label="gini = 0.0\nsamples = 48\nvalue = [72, 0]\nclass = M", fillcolor="#e58139ff"] ;
129 -> 130 ;
131 [label="ACS3.Gmp_Parameters_ToolUpper_GrindingRunningMeter <= 218.6\ngini = 0.38\nsamples = 17\nvalue = [18, 6]\nclass = M", fillcolor="#e58139aa"] ;
129 -> 131 ;
132 [label="ACS3.Gmp_Parameters_ToolUpper_GrindingRunningMeter <= 217.23\ngini = 0.28\nsamples = 4\nvalue = [1, 5]\nclass = a", fillcolor="#399de5cc"] ;
131 -> 132 ;
133 [label="ACS3.Gmp_Parameters_ToolUpper_GrindingRunningMeter <= 211.6\ngini = 0.44\nsamples = 3\nvalue = [1, 2]\nclass = a", fillcolor="#399de57f"] ;
132 -> 133 ;
134 [label="gini = 0.0\nsamples = 2\nvalue = [0, 2]\nclass = a", fillcolor="#399de5ff"] ;
133 -> 134 ;
135 [label="gini = 0.0\nsamples = 1\nvalue = [1, 0]\nclass = M", fillcolor="#e58139ff"] ;
133 -> 135 ;
136 [label="gini = 0.0\nsamples = 1\nvalue = [0, 3]\nclass = a", fillcolor="#399de5ff"] ;
132 -> 136 ;
137 [label="THICK <= 0.62\ngini = 0.1\nsamples = 13\nvalue = [17, 1]\nclass = M", fillcolor="#e58139f0"] ;
131 -> 137 ;
138 [label="gini = 0.0\nsamples = 12\nvalue = [17, 0]\nclass = M", fillcolor="#e58139ff"] ;
137 -> 138 ;
139 [label="gini = 0.0\nsamples = 1\nvalue = [0, 1]\nclass = a", fillcolor="#399de5ff"] ;
137 -> 139 ;
140 [label="gini = 0.0\nsamples = 34\nvalue = [0, 61]\nclass = a", fillcolor="#399de5ff"] ;
128 -> 140 ;
141 [label="THICK <= 0.66\ngini = 0.2\nsamples = 344\nvalue = [474, 61]\nclass = M", fillcolor="#e58139de"] ;
127 -> 141 ;
142 [label="gini = 0.0\nsamples = 99\nvalue = [152, 0]\nclass = M", fillcolor="#e58139ff"] ;
141 -> 142 ;
143 [label="THICK <= 0.67\ngini = 0.27\nsamples = 245\nvalue = [322, 61]\nclass = M", fillcolor="#e58139cf"] ;
141 -> 143 ;
144 [label="gini = 0.0\nsamples = 11\nvalue = [0, 19]\nclass = a", fillcolor="#399de5ff"] ;
143 -> 144 ;
145 [label="THICK <= 0.7\ngini = 0.2\nsamples = 234\nvalue = [322, 42]\nclass = M", fillcolor="#e58139de"] ;
143 -> 145 ;
146 [label="ACS3.Gmp_Parameters_ToolUpper_GrindingRunningMeter <= 6.68\ngini = 0.3\nsamples = 125\nvalue = [161, 36]\nclass = M", fillcolor="#e58139c6"] ;
145 -> 146 ;
147 [label="ACS3.Gmp_Parameters_ToolUpper_GrindingRunningMeter <= 2.11\ngini = 0.42\nsamples = 20\nvalue = [9, 21]\nclass = a", fillcolor="#399de592"] ;
146 -> 147 ;
148 [label="gini = 0.0\nsamples = 6\nvalue = [0, 10]\nclass = a", fillcolor="#399de5ff"] ;
147 -> 148 ;
149 [label="ACS3.Gmp_Parameters_ToolUpper_GrindingRunningMeter <= 5.66\ngini = 0.5\nsamples = 14\nvalue = [9, 11]\nclass = a", fillcolor="#399de52e"] ;
147 -> 149 ;
150 [label="ACS3.Gmp_Parameters_ToolUpper_GrindingRunningMeter <= 4.06\ngini = 0.5\nsamples = 11\nvalue = [9, 8]\nclass = M", fillcolor="#e581391c"] ;
149 -> 150 ;
151 [label="THICK <= 0.68\ngini = 0.44\nsamples = 5\nvalue = [3, 6]\nclass = a", fillcolor="#399de57f"] ;
150 -> 151 ;
152 [label="gini = 0.0\nsamples = 2\nvalue = [3, 0]\nclass = M", fillcolor="#e58139ff"] ;
151 -> 152 ;
153 [label="gini = 0.0\nsamples = 3\nvalue = [0, 6]\nclass = a", fillcolor="#399de5ff"] ;
151 -> 153 ;
154 [label="ACS3.Gmp_Parameters_ToolUpper_GrindingRunningMeter <= 4.64\ngini = 0.38\nsamples = 6\nvalue = [6, 2]\nclass = M", fillcolor="#e58139aa"] ;
150 -> 154 ;
155 [label="gini = 0.0\nsamples = 2\nvalue = [3, 0]\nclass = M", fillcolor="#e58139ff"] ;
154 -> 155 ;
156 [label="ACS3.Gmp_Parameters_ToolUpper_GrindingRunningMeter <= 5.44\ngini = 0.48\nsamples = 4\nvalue = [3, 2]\nclass = M", fillcolor="#e5813955"] ;
154 -> 156 ;
157 [label="ACS3.Gmp_Parameters_ToolUpper_GrindingRunningMeter <= 4.93\ngini = 0.44\nsamples = 3\nvalue = [1, 2]\nclass = a", fillcolor="#399de57f"] ;
156 -> 157 ;
158 [label="gini = 0.0\nsamples = 1\nvalue = [0, 1]\nclass = a", fillcolor="#399de5ff"] ;
157 -> 158 ;
159 [label="THICK <= 0.68\ngini = 0.5\nsamples = 2\nvalue = [1, 1]\nclass = M", fillcolor="#e5813900"] ;
157 -> 159 ;
160 [label="gini = 0.0\nsamples = 1\nvalue = [1, 0]\nclass = M", fillcolor="#e58139ff"] ;
159 -> 160 ;
161 [label="gini = 0.0\nsamples = 1\nvalue = [0, 1]\nclass = a", fillcolor="#399de5ff"] ;
159 -> 161 ;
162 [label="gini = 0.0\nsamples = 1\nvalue = [2, 0]\nclass = M", fillcolor="#e58139ff"] ;
156 -> 162 ;
163 [label="gini = 0.0\nsamples = 3\nvalue = [0, 3]\nclass = a", fillcolor="#399de5ff"] ;
149 -> 163 ;
164 [label="THICK <= 0.68\ngini = 0.16\nsamples = 105\nvalue = [152, 15]\nclass = M", fillcolor="#e58139e6"] ;
146 -> 164 ;
165 [label="gini = 0.0\nsamples = 52\nvalue = [83, 0]\nclass = M", fillcolor="#e58139ff"] ;
164 -> 165 ;
166 [label="ACS3.Gmp_Parameters_ToolUpper_GrindingRunningMeter <= 217.3\ngini = 0.29\nsamples = 53\nvalue = [69, 15]\nclass = M", fillcolor="#e58139c8"] ;
164 -> 166 ;
167 [label="gini = 0.0\nsamples = 43\nvalue = [69, 0]\nclass = M", fillcolor="#e58139ff"] ;
166 -> 167 ;
168 [label="gini = 0.0\nsamples = 10\nvalue = [0, 15]\nclass = a", fillcolor="#399de5ff"] ;
166 -> 168 ;
169 [label="ACS3.Gmp_Parameters_ToolUpper_GrindingRunningMeter <= 60.59\ngini = 0.07\nsamples = 109\nvalue = [161, 6]\nclass = M", fillcolor="#e58139f5"] ;
145 -> 169 ;
170 [label="THICK <= 0.73\ngini = 0.2\nsamples = 36\nvalue = [47, 6]\nclass = M", fillcolor="#e58139de"] ;
169 -> 170 ;
171 [label="gini = 0.0\nsamples = 16\nvalue = [24, 0]\nclass = M", fillcolor="#e58139ff"] ;
170 -> 171 ;
172 [label="THICK <= 0.73\ngini = 0.33\nsamples = 20\nvalue = [23, 6]\nclass = M", fillcolor="#e58139bc"] ;
170 -> 172 ;
173 [label="ACS3.Gmp_Parameters_ToolUpper_GrindingRunningMeter <= 22.11\ngini = 0.5\nsamples = 11\nvalue = [7, 6]\nclass = M", fillcolor="#e5813924"] ;
172 -> 173 ;
174 [label="gini = 0.0\nsamples = 7\nvalue = [7, 0]\nclass = M", fillcolor="#e58139ff"] ;
173 -> 174 ;
175 [label="gini = 0.0\nsamples = 4\nvalue = [0, 6]\nclass = a", fillcolor="#399de5ff"] ;
173 -> 175 ;
176 [label="gini = 0.0\nsamples = 9\nvalue = [16, 0]\nclass = M", fillcolor="#e58139ff"] ;
172 -> 176 ;
177 [label="gini = 0.0\nsamples = 73\nvalue = [114, 0]\nclass = M", fillcolor="#e58139ff"] ;
169 -> 177 ;
178 [label="THICK <= 0.73\ngini = 0.5\nsamples = 229\nvalue = [188, 155]\nclass = M", fillcolor="#e581392d"] ;
126 -> 178 ;
179 [label="ACS3.Gmp_Parameters_ToolUpper_GrindingRunningMeter <= 58.24\ngini = 0.33\nsamples = 92\nvalue = [27, 104]\nclass = a", fillcolor="#399de5bd"] ;
178 -> 179 ;
180 [label="gini = 0.0\nsamples = 22\nvalue = [0, 37]\nclass = a", fillcolor="#399de5ff"] ;
179 -> 180 ;
181 [label="ACS3.Gmp_Parameters_ToolUpper_GrindingRunningMeter <= 119.24\ngini = 0.41\nsamples = 70\nvalue = [27, 67]\nclass = a", fillcolor="#399de598"] ;
179 -> 181 ;
182 [label="gini = 0.0\nsamples = 8\nvalue = [10, 0]\nclass = M", fillcolor="#e58139ff"] ;
181 -> 182 ;
183 [label="ACS3.Gmp_Parameters_ToolUpper_GrindingRunningMeter <= 209.49\ngini = 0.32\nsamples = 62\nvalue = [17, 67]\nclass = a", fillcolor="#399de5be"] ;
181 -> 183 ;
184 [label="THICK <= 0.73\ngini = 0.4\nsamples = 44\nvalue = [17, 44]\nclass = a", fillcolor="#399de59c"] ;
183 -> 184 ;
185 [label="THICK <= 0.73\ngini = 0.44\nsamples = 18\nvalue = [17, 8]\nclass = M", fillcolor="#e5813987"] ;
184 -> 185 ;
186 [label="ACS3.Gmp_Parameters_ToolUpper_GrindingRunningMeter <= 186.52\ngini = 0.5\nsamples = 12\nvalue = [7, 8]\nclass = a", fillcolor="#399de520"] ;
185 -> 186 ;
187 [label="gini = 0.0\nsamples = 6\nvalue = [0, 8]\nclass = a", fillcolor="#399de5ff"] ;
186 -> 187 ;
188 [label="gini = 0.0\nsamples = 6\nvalue = [7, 0]\nclass = M", fillcolor="#e58139ff"] ;
186 -> 188 ;
189 [label="gini = 0.0\nsamples = 6\nvalue = [10, 0]\nclass = M", fillcolor="#e58139ff"] ;
185 -> 189 ;
190 [label="gini = 0.0\nsamples = 26\nvalue = [0, 36]\nclass = a", fillcolor="#399de5ff"] ;
184 -> 190 ;
191 [label="gini = 0.0\nsamples = 18\nvalue = [0, 23]\nclass = a", fillcolor="#399de5ff"] ;
183 -> 191 ;
192 [label="THICK <= 0.74\ngini = 0.37\nsamples = 137\nvalue = [161, 51]\nclass = M", fillcolor="#e58139ae"] ;
178 -> 192 ;
193 [label="gini = 0.0\nsamples = 55\nvalue = [79, 0]\nclass = M", fillcolor="#e58139ff"] ;
192 -> 193 ;
194 [label="ACS3.Gmp_Parameters_ToolUpper_GrindingRunningMeter <= 73.79\ngini = 0.47\nsamples = 82\nvalue = [82, 51]\nclass = M", fillcolor="#e5813960"] ;
192 -> 194 ;
195 [label="gini = 0.0\nsamples = 32\nvalue = [47, 0]\nclass = M", fillcolor="#e58139ff"] ;
194 -> 195 ;
196 [label="ACS3.Gmp_Parameters_ToolUpper_GrindingRunningMeter <= 234.75\ngini = 0.48\nsamples = 50\nvalue = [35, 51]\nclass = a", fillcolor="#399de550"] ;
194 -> 196 ;
197 [label="THICK <= 0.74\ngini = 0.46\nsamples = 46\nvalue = [29, 51]\nclass = a", fillcolor="#399de56e"] ;
196 -> 197 ;
198 [label="ACS3.Gmp_Parameters_ToolUpper_GrindingRunningMeter <= 141.85\ngini = 0.3\nsamples = 30\nvalue = [9, 41]\nclass = a", fillcolor="#399de5c7"] ;
197 -> 198 ;
199 [label="THICK <= 0.74\ngini = 0.5\nsamples = 12\nvalue = [9, 11]\nclass = a", fillcolor="#399de52e"] ;
198 -> 199 ;
200 [label="gini = 0.0\nsamples = 6\nvalue = [9, 0]\nclass = M", fillcolor="#e58139ff"] ;
199 -> 200 ;
201 [label="gini = 0.0\nsamples = 6\nvalue = [0, 11]\nclass = a", fillcolor="#399de5ff"] ;
199 -> 201 ;
202 [label="gini = 0.0\nsamples = 18\nvalue = [0, 30]\nclass = a", fillcolor="#399de5ff"] ;
198 -> 202 ;
203 [label="THICK <= 0.74\ngini = 0.44\nsamples = 16\nvalue = [20, 10]\nclass = M", fillcolor="#e581397f"] ;
197 -> 203 ;
204 [label="gini = 0.0\nsamples = 6\nvalue = [12, 0]\nclass = M", fillcolor="#e58139ff"] ;
203 -> 204 ;
205 [label="ACS3.Gmp_Parameters_ToolUpper_GrindingRunningMeter <= 138.68\ngini = 0.49\nsamples = 10\nvalue = [8, 10]\nclass = a", fillcolor="#399de533"] ;
203 -> 205 ;
206 [label="gini = 0.0\nsamples = 5\nvalue = [8, 0]\nclass = M", fillcolor="#e58139ff"] ;
205 -> 206 ;
207 [label="gini = 0.0\nsamples = 5\nvalue = [0, 10]\nclass = a", fillcolor="#399de5ff"] ;
205 -> 207 ;
208 [label="gini = 0.0\nsamples = 4\nvalue = [6, 0]\nclass = M", fillcolor="#e58139ff"] ;
196 -> 208 ;
209 [label="gini = 0.0\nsamples = 15\nvalue = [0, 23]\nclass = a", fillcolor="#399de5ff"] ;
3 -> 209 ;
210 [label="Grindhead <= 1.5\ngini = 0.47\nsamples = 216\nvalue = [200, 122]\nclass = M", fillcolor="#e5813963"] ;
2 -> 210 ;
211 [label="ACS3.Gmp_Parameters_ToolUpper_GrindingRunningMeter <= 262.26\ngini = 0.49\nsamples = 101\nvalue = [83, 63]\nclass = M", fillcolor="#e581393d"] ;
210 -> 211 ;
212 [label="gini = 0.0\nsamples = 2\nvalue = [0, 2]\nclass = a", fillcolor="#399de5ff"] ;
211 -> 212 ;
213 [label="THICK <= 0.72\ngini = 0.49\nsamples = 99\nvalue = [83, 61]\nclass = M", fillcolor="#e5813944"] ;
211 -> 213 ;
214 [label="ACS3.Gmp_Parameters_ToolUpper_GrindingRunningMeter <= 319.53\ngini = 0.34\nsamples = 61\nvalue = [65, 18]\nclass = M", fillcolor="#e58139b8"] ;
213 -> 214 ;
215 [label="THICK <= 0.61\ngini = 0.32\nsamples = 60\nvalue = [65, 16]\nclass = M", fillcolor="#e58139c0"] ;
214 -> 215 ;
216 [label="THICK <= 0.59\ngini = 0.5\nsamples = 12\nvalue = [9, 11]\nclass = a", fillcolor="#399de52e"] ;
215 -> 216 ;
217 [label="gini = 0.0\nsamples = 6\nvalue = [9, 0]\nclass = M", fillcolor="#e58139ff"] ;
216 -> 217 ;
218 [label="gini = 0.0\nsamples = 6\nvalue = [0, 11]\nclass = a", fillcolor="#399de5ff"] ;
216 -> 218 ;
219 [label="ACS3.Gmp_Parameters_ToolUpper_GrindingRunningMeter <= 270.6\ngini = 0.15\nsamples = 48\nvalue = [56, 5]\nclass = M", fillcolor="#e58139e8"] ;
215 -> 219 ;
220 [label="THICK <= 0.67\ngini = 0.47\nsamples = 11\nvalue = [8, 5]\nclass = M", fillcolor="#e5813960"] ;
219 -> 220 ;
221 [label="gini = 0.0\nsamples = 4\nvalue = [4, 0]\nclass = M", fillcolor="#e58139ff"] ;
220 -> 221 ;
222 [label="ACS3.Gmp_Parameters_ToolUpper_GrindingRunningMeter <= 265.4\ngini = 0.49\nsamples = 7\nvalue = [4, 5]\nclass = a", fillcolor="#399de533"] ;
220 -> 222 ;
223 [label="gini = 0.0\nsamples = 2\nvalue = [4, 0]\nclass = M", fillcolor="#e58139ff"] ;
222 -> 223 ;
224 [label="gini = 0.0\nsamples = 5\nvalue = [0, 5]\nclass = a", fillcolor="#399de5ff"] ;
222 -> 224 ;
225 [label="gini = 0.0\nsamples = 37\nvalue = [48, 0]\nclass = M", fillcolor="#e58139ff"] ;
219 -> 225 ;
226 [label="gini = 0.0\nsamples = 1\nvalue = [0, 2]\nclass = a", fillcolor="#399de5ff"] ;
214 -> 226 ;
227 [label="THICK <= 0.74\ngini = 0.42\nsamples = 38\nvalue = [18, 43]\nclass = a", fillcolor="#399de594"] ;
213 -> 227 ;
228 [label="gini = 0.0\nsamples = 21\nvalue = [0, 31]\nclass = a", fillcolor="#399de5ff"] ;
227 -> 228 ;
229 [label="ACS3.Gmp_Parameters_ToolUpper_GrindingRunningMeter <= 291.29\ngini = 0.48\nsamples = 17\nvalue = [18, 12]\nclass = M", fillcolor="#e5813955"] ;
227 -> 229 ;
230 [label="ACS3.Gmp_Parameters_ToolUpper_GrindingRunningMeter <= 285.76\ngini = 0.14\nsamples = 8\nvalue = [12, 1]\nclass = M", fillcolor="#e58139ea"] ;
229 -> 230 ;
231 [label="gini = 0.0\nsamples = 5\nvalue = [7, 0]\nclass = M", fillcolor="#e58139ff"] ;
230 -> 231 ;
232 [label="ACS3.Gmp_Parameters_ToolUpper_GrindingRunningMeter <= 287.12\ngini = 0.28\nsamples = 3\nvalue = [5, 1]\nclass = M", fillcolor="#e58139cc"] ;
230 -> 232 ;
233 [label="gini = 0.0\nsamples = 1\nvalue = [0, 1]\nclass = a", fillcolor="#399de5ff"] ;
232 -> 233 ;
234 [label="gini = 0.0\nsamples = 2\nvalue = [5, 0]\nclass = M", fillcolor="#e58139ff"] ;
232 -> 234 ;
235 [label="THICK <= 0.74\ngini = 0.46\nsamples = 9\nvalue = [6, 11]\nclass = a", fillcolor="#399de574"] ;
229 -> 235 ;
236 [label="THICK <= 0.74\ngini = 0.38\nsamples = 4\nvalue = [6, 2]\nclass = M", fillcolor="#e58139aa"] ;
235 -> 236 ;
237 [label="gini = 0.0\nsamples = 1\nvalue = [3, 0]\nclass = M", fillcolor="#e58139ff"] ;
236 -> 237 ;
238 [label="ACS3.Gmp_Parameters_ToolUpper_GrindingRunningMeter <= 305.16\ngini = 0.48\nsamples = 3\nvalue = [3, 2]\nclass = M", fillcolor="#e5813955"] ;
236 -> 238 ;
239 [label="gini = 0.0\nsamples = 2\nvalue = [3, 0]\nclass = M", fillcolor="#e58139ff"] ;
238 -> 239 ;
240 [label="gini = 0.0\nsamples = 1\nvalue = [0, 2]\nclass = a", fillcolor="#399de5ff"] ;
238 -> 240 ;
241 [label="gini = 0.0\nsamples = 5\nvalue = [0, 9]\nclass = a", fillcolor="#399de5ff"] ;
235 -> 241 ;
242 [label="THICK <= 0.73\ngini = 0.45\nsamples = 115\nvalue = [117, 59]\nclass = M", fillcolor="#e581397e"] ;
210 -> 242 ;
243 [label="ACS3.Gmp_Parameters_ToolUpper_GrindingRunningMeter <= 301.64\ngini = 0.49\nsamples = 89\nvalue = [76, 59]\nclass = M", fillcolor="#e5813939"] ;
242 -> 243 ;
244 [label="ACS3.Gmp_Parameters_ToolUpper_GrindingRunningMeter <= 263.26\ngini = 0.5\nsamples = 67\nvalue = [46, 56]\nclass = a", fillcolor="#399de52e"] ;
243 -> 244 ;
245 [label="gini = 0.0\nsamples = 5\nvalue = [0, 8]\nclass = a", fillcolor="#399de5ff"] ;
244 -> 245 ;
246 [label="ACS3.Gmp_Parameters_ToolUpper_GrindingRunningMeter <= 265.1\ngini = 0.5\nsamples = 62\nvalue = [46, 48]\nclass = a", fillcolor="#399de50b"] ;
244 -> 246 ;
247 [label="gini = 0.0\nsamples = 4\nvalue = [6, 0]\nclass = M", fillcolor="#e58139ff"] ;
246 -> 247 ;
248 [label="ACS3.Gmp_Parameters_ToolUpper_GrindingRunningMeter <= 276.79\ngini = 0.5\nsamples = 58\nvalue = [40, 48]\nclass = a", fillcolor="#399de52a"] ;
246 -> 248 ;
249 [label="THICK <= 0.73\ngini = 0.44\nsamples = 21\nvalue = [10, 20]\nclass = a", fillcolor="#399de57f"] ;
248 -> 249 ;
250 [label="THICK <= 0.67\ngini = 0.47\nsamples = 11\nvalue = [10, 6]\nclass = M", fillcolor="#e5813966"] ;
249 -> 250 ;
251 [label="gini = 0.0\nsamples = 3\nvalue = [5, 0]\nclass = M", fillcolor="#e58139ff"] ;
250 -> 251 ;
252 [label="THICK <= 0.68\ngini = 0.5\nsamples = 8\nvalue = [5, 6]\nclass = a", fillcolor="#399de52a"] ;
250 -> 252 ;
253 [label="gini = 0.0\nsamples = 4\nvalue = [0, 6]\nclass = a", fillcolor="#399de5ff"] ;
252 -> 253 ;
254 [label="gini = 0.0\nsamples = 4\nvalue = [5, 0]\nclass = M", fillcolor="#e58139ff"] ;
252 -> 254 ;
255 [label="gini = 0.0\nsamples = 10\nvalue = [0, 14]\nclass = a", fillcolor="#399de5ff"] ;
249 -> 255 ;
256 [label="ACS3.Gmp_Parameters_ToolUpper_GrindingRunningMeter <= 278.25\ngini = 0.5\nsamples = 37\nvalue = [30, 28]\nclass = M", fillcolor="#e5813911"] ;
248 -> 256 ;
257 [label="gini = 0.0\nsamples = 3\nvalue = [5, 0]\nclass = M", fillcolor="#e58139ff"] ;
256 -> 257 ;
258 [label="THICK <= 0.73\ngini = 0.5\nsamples = 34\nvalue = [25, 28]\nclass = a", fillcolor="#399de51b"] ;
256 -> 258 ;
259 [label="ACS3.Gmp_Parameters_ToolUpper_GrindingRunningMeter <= 297.27\ngini = 0.42\nsamples = 25\nvalue = [25, 11]\nclass = M", fillcolor="#e581398f"] ;
258 -> 259 ;
260 [label="ACS3.Gmp_Parameters_ToolUpper_GrindingRunningMeter <= 281.12\ngini = 0.29\nsamples = 20\nvalue = [23, 5]\nclass = M", fillcolor="#e58139c8"] ;
259 -> 260 ;
261 [label="gini = 0.0\nsamples = 4\nvalue = [7, 0]\nclass = M", fillcolor="#e58139ff"] ;
260 -> 261 ;
262 [label="ACS3.Gmp_Parameters_ToolUpper_GrindingRunningMeter <= 287.86\ngini = 0.36\nsamples = 16\nvalue = [16, 5]\nclass = M", fillcolor="#e58139af"] ;
260 -> 262 ;
263 [label="ACS3.Gmp_Parameters_ToolUpper_GrindingRunningMeter <= 281.51\ngini = 0.5\nsamples = 8\nvalue = [4, 4]\nclass = M", fillcolor="#e5813900"] ;
262 -> 263 ;
264 [label="gini = 0.0\nsamples = 1\nvalue = [0, 1]\nclass = a", fillcolor="#399de5ff"] ;
263 -> 264 ;
265 [label="ACS3.Gmp_Parameters_ToolUpper_GrindingRunningMeter <= 284.17\ngini = 0.49\nsamples = 7\nvalue = [4, 3]\nclass = M", fillcolor="#e5813940"] ;
263 -> 265 ;
266 [label="gini = 0.0\nsamples = 2\nvalue = [2, 0]\nclass = M", fillcolor="#e58139ff"] ;
265 -> 266 ;
267 [label="THICK <= 0.7\ngini = 0.48\nsamples = 5\nvalue = [2, 3]\nclass = a", fillcolor="#399de555"] ;
265 -> 267 ;
268 [label="gini = 0.0\nsamples = 3\nvalue = [0, 3]\nclass = a", fillcolor="#399de5ff"] ;
267 -> 268 ;
269 [label="gini = 0.0\nsamples = 2\nvalue = [2, 0]\nclass = M", fillcolor="#e58139ff"] ;
267 -> 269 ;
270 [label="ACS3.Gmp_Parameters_ToolUpper_GrindingRunningMeter <= 295.61\ngini = 0.14\nsamples = 8\nvalue = [12, 1]\nclass = M", fillcolor="#e58139ea"] ;
262 -> 270 ;
271 [label="gini = 0.0\nsamples = 6\nvalue = [10, 0]\nclass = M", fillcolor="#e58139ff"] ;
270 -> 271 ;
272 [label="ACS3.Gmp_Parameters_ToolUpper_GrindingRunningMeter <= 296.44\ngini = 0.44\nsamples = 2\nvalue = [2, 1]\nclass = M", fillcolor="#e581397f"] ;
270 -> 272 ;
273 [label="gini = 0.0\nsamples = 1\nvalue = [0, 1]\nclass = a", fillcolor="#399de5ff"] ;
272 -> 273 ;
274 [label="gini = 0.0\nsamples = 1\nvalue = [2, 0]\nclass = M", fillcolor="#e58139ff"] ;
272 -> 274 ;
275 [label="ACS3.Gmp_Parameters_ToolUpper_GrindingRunningMeter <= 298.92\ngini = 0.38\nsamples = 5\nvalue = [2, 6]\nclass = a", fillcolor="#399de5aa"] ;
259 -> 275 ;
276 [label="gini = 0.0\nsamples = 2\nvalue = [0, 5]\nclass = a", fillcolor="#399de5ff"] ;
275 -> 276 ;
277 [label="THICK <= 0.64\ngini = 0.44\nsamples = 3\nvalue = [2, 1]\nclass = M", fillcolor="#e581397f"] ;
275 -> 277 ;
278 [label="gini = 0.0\nsamples = 1\nvalue = [0, 1]\nclass = a", fillcolor="#399de5ff"] ;
277 -> 278 ;
279 [label="gini = 0.0\nsamples = 2\nvalue = [2, 0]\nclass = M", fillcolor="#e58139ff"] ;
277 -> 279 ;
280 [label="gini = 0.0\nsamples = 9\nvalue = [0, 17]\nclass = a", fillcolor="#399de5ff"] ;
258 -> 280 ;
281 [label="ACS3.Gmp_Parameters_ToolUpper_GrindingRunningMeter <= 319.7\ngini = 0.17\nsamples = 22\nvalue = [30, 3]\nclass = M", fillcolor="#e58139e6"] ;
243 -> 281 ;
282 [label="ACS3.Gmp_Parameters_ToolUpper_GrindingRunningMeter <= 310.01\ngini = 0.12\nsamples = 21\nvalue = [30, 2]\nclass = M", fillcolor="#e58139ee"] ;
281 -> 282 ;
283 [label="ACS3.Gmp_Parameters_ToolUpper_GrindingRunningMeter <= 309.11\ngini = 0.28\nsamples = 9\nvalue = [10, 2]\nclass = M", fillcolor="#e58139cc"] ;
282 -> 283 ;
284 [label="THICK <= 0.73\ngini = 0.17\nsamples = 8\nvalue = [10, 1]\nclass = M", fillcolor="#e58139e6"] ;
283 -> 284 ;
285 [label="gini = 0.0\nsamples = 7\nvalue = [10, 0]\nclass = M", fillcolor="#e58139ff"] ;
284 -> 285 ;
286 [label="gini = 0.0\nsamples = 1\nvalue = [0, 1]\nclass = a", fillcolor="#399de5ff"] ;
284 -> 286 ;
287 [label="gini = 0.0\nsamples = 1\nvalue = [0, 1]\nclass = a", fillcolor="#399de5ff"] ;
283 -> 287 ;
288 [label="gini = 0.0\nsamples = 12\nvalue = [20, 0]\nclass = M", fillcolor="#e58139ff"] ;
282 -> 288 ;
289 [label="gini = 0.0\nsamples = 1\nvalue = [0, 1]\nclass = a", fillcolor="#399de5ff"] ;
281 -> 289 ;
290 [label="gini = 0.0\nsamples = 26\nvalue = [41, 0]\nclass = M", fillcolor="#e58139ff"] ;
242 -> 290 ;
291 [label="THICK <= 0.73\ngini = 0.25\nsamples = 3181\nvalue = [4386, 752]\nclass = M", fillcolor="#e58139d3"] ;
1 -> 291 ;
292 [label="ACS3.Gmp_Parameters_ToolUpper_GrindingRunningMeter <= 1298.52\ngini = 0.27\nsamples = 2758\nvalue = [3734, 727]\nclass = M", fillcolor="#e58139cd"] ;
291 -> 292 ;
293 [label="ACS3.Gmp_Parameters_ToolUpper_GrindingRunningMeter <= 1234.42\ngini = 0.27\nsamples = 2700\nvalue = [3670, 688]\nclass = M", fillcolor="#e58139cf"] ;
292 -> 293 ;
294 [label="THICK <= 0.73\ngini = 0.27\nsamples = 2607\nvalue = [3520, 678]\nclass = M", fillcolor="#e58139ce"] ;
293 -> 294 ;
295 [label="ACS3.Gmp_Parameters_ToolUpper_GrindingRunningMeter <= 393.85\ngini = 0.24\nsamples = 2351\nvalue = [3289, 521]\nclass = M", fillcolor="#e58139d7"] ;
294 -> 295 ;
296 [label="Grindhead <= 1.5\ngini = 0.01\nsamples = 178\nvalue = [288, 2]\nclass = M", fillcolor="#e58139fd"] ;
295 -> 296 ;
297 [label="ACS3.Gmp_Parameters_ToolUpper_GrindingRunningMeter <= 331.39\ngini = 0.03\nsamples = 86\nvalue = [145, 2]\nclass = M", fillcolor="#e58139fb"] ;
296 -> 297 ;
298 [label="ACS3.Gmp_Parameters_ToolUpper_GrindingRunningMeter <= 330.93\ngini = 0.2\nsamples = 12\nvalue = [16, 2]\nclass = M", fillcolor="#e58139df"] ;
297 -> 298 ;
299 [label="ACS3.Gmp_Parameters_ToolUpper_GrindingRunningMeter <= 322.66\ngini = 0.11\nsamples = 11\nvalue = [16, 1]\nclass = M", fillcolor="#e58139ef"] ;
298 -> 299 ;
300 [label="THICK <= 0.59\ngini = 0.32\nsamples = 4\nvalue = [4, 1]\nclass = M", fillcolor="#e58139bf"] ;
299 -> 300 ;
301 [label="gini = 0.0\nsamples = 1\nvalue = [2, 0]\nclass = M", fillcolor="#e58139ff"] ;
300 -> 301 ;
302 [label="THICK <= 0.63\ngini = 0.44\nsamples = 3\nvalue = [2, 1]\nclass = M", fillcolor="#e581397f"] ;
300 -> 302 ;
303 [label="gini = 0.0\nsamples = 1\nvalue = [0, 1]\nclass = a", fillcolor="#399de5ff"] ;
302 -> 303 ;
304 [label="gini = 0.0\nsamples = 2\nvalue = [2, 0]\nclass = M", fillcolor="#e58139ff"] ;
302 -> 304 ;
305 [label="gini = 0.0\nsamples = 7\nvalue = [12, 0]\nclass = M", fillcolor="#e58139ff"] ;
299 -> 305 ;
306 [label="gini = 0.0\nsamples = 1\nvalue = [0, 1]\nclass = a", fillcolor="#399de5ff"] ;
298 -> 306 ;
307 [label="gini = 0.0\nsamples = 74\nvalue = [129, 0]\nclass = M", fillcolor="#e58139ff"] ;
297 -> 307 ;
308 [label="gini = 0.0\nsamples = 92\nvalue = [143, 0]\nclass = M", fillcolor="#e58139ff"] ;
296 -> 308 ;
309 [label="ACS3.Gmp_Parameters_ToolUpper_GrindingRunningMeter <= 403.65\ngini = 0.25\nsamples = 2173\nvalue = [3001, 519]\nclass = M", fillcolor="#e58139d3"] ;
295 -> 309 ;
310 [label="Grindhead <= 1.5\ngini = 0.46\nsamples = 35\nvalue = [33, 19]\nclass = M", fillcolor="#e581396c"] ;
309 -> 310 ;
311 [label="gini = 0.0\nsamples = 15\nvalue = [22, 0]\nclass = M", fillcolor="#e58139ff"] ;
310 -> 311 ;
312 [label="ACS3.Gmp_Parameters_ToolUpper_GrindingRunningMeter <= 403.13\ngini = 0.46\nsamples = 20\nvalue = [11, 19]\nclass = a", fillcolor="#399de56b"] ;
310 -> 312 ;
313 [label="THICK <= 0.63\ngini = 0.49\nsamples = 18\nvalue = [11, 14]\nclass = a", fillcolor="#399de537"] ;
312 -> 313 ;
314 [label="ACS3.Gmp_Parameters_ToolUpper_GrindingRunningMeter <= 402.49\ngini = 0.23\nsamples = 9\nvalue = [2, 13]\nclass = a", fillcolor="#399de5d8"] ;
313 -> 314 ;
315 [label="THICK <= 0.6\ngini = 0.13\nsamples = 8\nvalue = [1, 13]\nclass = a", fillcolor="#399de5eb"] ;
314 -> 315 ;
316 [label="gini = 0.0\nsamples = 1\nvalue = [1, 0]\nclass = M", fillcolor="#e58139ff"] ;
315 -> 316 ;
317 [label="gini = 0.0\nsamples = 7\nvalue = [0, 13]\nclass = a", fillcolor="#399de5ff"] ;
315 -> 317 ;
318 [label="gini = 0.0\nsamples = 1\nvalue = [1, 0]\nclass = M", fillcolor="#e58139ff"] ;
314 -> 318 ;
319 [label="ACS3.Gmp_Parameters_ToolUpper_GrindingRunningMeter <= 399.32\ngini = 0.18\nsamples = 9\nvalue = [9, 1]\nclass = M", fillcolor="#e58139e3"] ;
313 -> 319 ;
320 [label="THICK <= 0.7\ngini = 0.38\nsamples = 4\nvalue = [3, 1]\nclass = M", fillcolor="#e58139aa"] ;
319 -> 320 ;
321 [label="gini = 0.0\nsamples = 1\nvalue = [0, 1]\nclass = a", fillcolor="#399de5ff"] ;
320 -> 321 ;
322 [label="gini = 0.0\nsamples = 3\nvalue = [3, 0]\nclass = M", fillcolor="#e58139ff"] ;
320 -> 322 ;
323 [label="gini = 0.0\nsamples = 5\nvalue = [6, 0]\nclass = M", fillcolor="#e58139ff"] ;
319 -> 323 ;
324 [label="gini = 0.0\nsamples = 2\nvalue = [0, 5]\nclass = a", fillcolor="#399de5ff"] ;
312 -> 324 ;
325 [label="Grindhead <= 1.5\ngini = 0.25\nsamples = 2138\nvalue = [2968, 500]\nclass = M", fillcolor="#e58139d4"] ;
309 -> 325 ;
326 [label="ACS3.Gmp_Parameters_ToolUpper_GrindingRunningMeter <= 942.31\ngini = 0.23\nsamples = 1038\nvalue = [1454, 218]\nclass = M", fillcolor="#e58139d9"] ;
325 -> 326 ;
327 [label="THICK <= 0.63\ngini = 0.18\nsamples = 711\nvalue = [1027, 114]\nclass = M", fillcolor="#e58139e3"] ;
326 -> 327 ;
328 [label="ACS3.Gmp_Parameters_ToolUpper_GrindingRunningMeter <= 593.17\ngini = 0.07\nsamples = 320\nvalue = [498, 18]\nclass = M", fillcolor="#e58139f6"] ;
327 -> 328 ;
329 [label="gini = 0.0\nsamples = 115\nvalue = [185, 0]\nclass = M", fillcolor="#e58139ff"] ;
328 -> 329 ;
330 [label="THICK <= 0.58\ngini = 0.1\nsamples = 205\nvalue = [313, 18]\nclass = M", fillcolor="#e58139f0"] ;
328 -> 330 ;
331 [label="ACS3.Gmp_Parameters_ToolUpper_GrindingRunningMeter <= 628.5\ngini = 0.22\nsamples = 97\nvalue = [126, 18]\nclass = M", fillcolor="#e58139db"] ;
330 -> 331 ;
332 [label="gini = 0.0\nsamples = 10\nvalue = [0, 13]\nclass = a", fillcolor="#399de5ff"] ;
331 -> 332 ;
333 [label="THICK <= 0.58\ngini = 0.07\nsamples = 87\nvalue = [126, 5]\nclass = M", fillcolor="#e58139f5"] ;
331 -> 333 ;
334 [label="gini = 0.0\nsamples = 81\nvalue = [125, 0]\nclass = M", fillcolor="#e58139ff"] ;
333 -> 334 ;
335 [label="THICK <= 0.58\ngini = 0.28\nsamples = 6\nvalue = [1, 5]\nclass = a", fillcolor="#399de5cc"] ;
333 -> 335 ;
336 [label="gini = 0.0\nsamples = 4\nvalue = [0, 4]\nclass = a", fillcolor="#399de5ff"] ;
335 -> 336 ;
337 [label="ACS3.Gmp_Parameters_ToolUpper_GrindingRunningMeter <= 797.15\ngini = 0.5\nsamples = 2\nvalue = [1, 1]\nclass = M", fillcolor="#e5813900"] ;
335 -> 337 ;
338 [label="gini = 0.0\nsamples = 1\nvalue = [0, 1]\nclass = a", fillcolor="#399de5ff"] ;
337 -> 338 ;
339 [label="gini = 0.0\nsamples = 1\nvalue = [1, 0]\nclass = M", fillcolor="#e58139ff"] ;
337 -> 339 ;
340 [label="gini = 0.0\nsamples = 108\nvalue = [187, 0]\nclass = M", fillcolor="#e58139ff"] ;
330 -> 340 ;
341 [label="ACS3.Gmp_Parameters_ToolUpper_GrindingRunningMeter <= 650.43\ngini = 0.26\nsamples = 391\nvalue = [529, 96]\nclass = M", fillcolor="#e58139d1"] ;
327 -> 341 ;
342 [label="ACS3.Gmp_Parameters_ToolUpper_GrindingRunningMeter <= 538.98\ngini = 0.35\nsamples = 194\nvalue = [243, 71]\nclass = M", fillcolor="#e58139b4"] ;
341 -> 342 ;
343 [label="ACS3.Gmp_Parameters_ToolUpper_GrindingRunningMeter <= 462.49\ngini = 0.2\nsamples = 100\nvalue = [140, 18]\nclass = M", fillcolor="#e58139de"] ;
342 -> 343 ;
344 [label="ACS3.Gmp_Parameters_ToolUpper_GrindingRunningMeter <= 446.79\ngini = 0.03\nsamples = 44\nvalue = [67, 1]\nclass = M", fillcolor="#e58139fb"] ;
343 -> 344 ;
345 [label="gini = 0.0\nsamples = 35\nvalue = [54, 0]\nclass = M", fillcolor="#e58139ff"] ;
344 -> 345 ;
346 [label="ACS3.Gmp_Parameters_ToolUpper_GrindingRunningMeter <= 448.42\ngini = 0.13\nsamples = 9\nvalue = [13, 1]\nclass = M", fillcolor="#e58139eb"] ;
344 -> 346 ;
347 [label="gini = 0.0\nsamples = 1\nvalue = [0, 1]\nclass = a", fillcolor="#399de5ff"] ;
346 -> 347 ;
348 [label="gini = 0.0\nsamples = 8\nvalue = [13, 0]\nclass = M", fillcolor="#e58139ff"] ;
346 -> 348 ;
349 [label="ACS3.Gmp_Parameters_ToolUpper_GrindingRunningMeter <= 499.39\ngini = 0.31\nsamples = 56\nvalue = [73, 17]\nclass = M", fillcolor="#e58139c4"] ;
343 -> 349 ;
350 [label="ACS3.Gmp_Parameters_ToolUpper_GrindingRunningMeter <= 494.0\ngini = 0.48\nsamples = 27\nvalue = [25, 17]\nclass = M", fillcolor="#e5813952"] ;
349 -> 350 ;
351 [label="ACS3.Gmp_Parameters_ToolUpper_GrindingRunningMeter <= 463.71\ngini = 0.42\nsamples = 22\nvalue = [25, 11]\nclass = M", fillcolor="#e581398f"] ;
350 -> 351 ;
352 [label="gini = 0.0\nsamples = 1\nvalue = [0, 1]\nclass = a", fillcolor="#399de5ff"] ;
351 -> 352 ;
353 [label="ACS3.Gmp_Parameters_ToolUpper_GrindingRunningMeter <= 471.0\ngini = 0.41\nsamples = 21\nvalue = [25, 10]\nclass = M", fillcolor="#e5813999"] ;
351 -> 353 ;
354 [label="gini = 0.0\nsamples = 4\nvalue = [7, 0]\nclass = M", fillcolor="#e58139ff"] ;
353 -> 354 ;
355 [label="ACS3.Gmp_Parameters_ToolUpper_GrindingRunningMeter <= 472.3\ngini = 0.46\nsamples = 17\nvalue = [18, 10]\nclass = M", fillcolor="#e5813971"] ;
353 -> 355 ;
356 [label="gini = 0.0\nsamples = 2\nvalue = [0, 2]\nclass = a", fillcolor="#399de5ff"] ;
355 -> 356 ;
357 [label="ACS3.Gmp_Parameters_ToolUpper_GrindingRunningMeter <= 473.82\ngini = 0.43\nsamples = 15\nvalue = [18, 8]\nclass = M", fillcolor="#e581398e"] ;
355 -> 357 ;
358 [label="gini = 0.0\nsamples = 2\nvalue = [4, 0]\nclass = M", fillcolor="#e58139ff"] ;
357 -> 358 ;
359 [label="THICK <= 0.7\ngini = 0.46\nsamples = 13\nvalue = [14, 8]\nclass = M", fillcolor="#e581396d"] ;
357 -> 359 ;
360 [label="gini = 0.0\nsamples = 4\nvalue = [0, 8]\nclass = a", fillcolor="#399de5ff"] ;
359 -> 360 ;
361 [label="gini = 0.0\nsamples = 9\nvalue = [14, 0]\nclass = M", fillcolor="#e58139ff"] ;
359 -> 361 ;
362 [label="gini = 0.0\nsamples = 5\nvalue = [0, 6]\nclass = a", fillcolor="#399de5ff"] ;
350 -> 362 ;
363 [label="gini = 0.0\nsamples = 29\nvalue = [48, 0]\nclass = M", fillcolor="#e58139ff"] ;
349 -> 363 ;
364 [label="THICK <= 0.68\ngini = 0.45\nsamples = 94\nvalue = [103, 53]\nclass = M", fillcolor="#e581397c"] ;
342 -> 364 ;
365 [label="THICK <= 0.68\ngini = 0.21\nsamples = 27\nvalue = [5, 38]\nclass = a", fillcolor="#399de5dd"] ;
364 -> 365 ;
366 [label="gini = 0.0\nsamples = 2\nvalue = [5, 0]\nclass = M", fillcolor="#e58139ff"] ;
365 -> 366 ;
367 [label="gini = 0.0\nsamples = 25\nvalue = [0, 38]\nclass = a", fillcolor="#399de5ff"] ;
365 -> 367 ;
368 [label="THICK <= 0.7\ngini = 0.23\nsamples = 67\nvalue = [98, 15]\nclass = M", fillcolor="#e58139d8"] ;
364 -> 368 ;
369 [label="gini = 0.0\nsamples = 26\nvalue = [53, 0]\nclass = M", fillcolor="#e58139ff"] ;
368 -> 369 ;
370 [label="THICK <= 0.71\ngini = 0.38\nsamples = 41\nvalue = [45, 15]\nclass = M", fillcolor="#e58139aa"] ;
368 -> 370 ;
371 [label="gini = 0.0\nsamples = 9\nvalue = [0, 15]\nclass = a", fillcolor="#399de5ff"] ;
370 -> 371 ;
372 [label="gini = 0.0\nsamples = 32\nvalue = [45, 0]\nclass = M", fillcolor="#e58139ff"] ;
370 -> 372 ;
373 [label="THICK <= 0.63\ngini = 0.15\nsamples = 197\nvalue = [286, 25]\nclass = M", fillcolor="#e58139e9"] ;
341 -> 373 ;
374 [label="gini = 0.0\nsamples = 6\nvalue = [0, 9]\nclass = a", fillcolor="#399de5ff"] ;
373 -> 374 ;
375 [label="ACS3.Gmp_Parameters_ToolUpper_GrindingRunningMeter <= 761.49\ngini = 0.1\nsamples = 191\nvalue = [286, 16]\nclass = M", fillcolor="#e58139f1"] ;
373 -> 375 ;
376 [label="ACS3.Gmp_Parameters_ToolUpper_GrindingRunningMeter <= 727.01\ngini = 0.01\nsamples = 86\nvalue = [140, 1]\nclass = M", fillcolor="#e58139fd"] ;
375 -> 376 ;
377 [label="gini = 0.0\nsamples = 61\nvalue = [104, 0]\nclass = M", fillcolor="#e58139ff"] ;
376 -> 377 ;
378 [label="ACS3.Gmp_Parameters_ToolUpper_GrindingRunningMeter <= 729.75\ngini = 0.05\nsamples = 25\nvalue = [36, 1]\nclass = M", fillcolor="#e58139f8"] ;
376 -> 378 ;
379 [label="gini = 0.0\nsamples = 1\nvalue = [0, 1]\nclass = a", fillcolor="#399de5ff"] ;
378 -> 379 ;
380 [label="gini = 0.0\nsamples = 24\nvalue = [36, 0]\nclass = M", fillcolor="#e58139ff"] ;
378 -> 380 ;
381 [label="ACS3.Gmp_Parameters_ToolUpper_GrindingRunningMeter <= 764.14\ngini = 0.17\nsamples = 105\nvalue = [146, 15]\nclass = M", fillcolor="#e58139e5"] ;
375 -> 381 ;
382 [label="gini = 0.0\nsamples = 4\nvalue = [0, 9]\nclass = a", fillcolor="#399de5ff"] ;
381 -> 382 ;
383 [label="THICK <= 0.68\ngini = 0.08\nsamples = 101\nvalue = [146, 6]\nclass = M", fillcolor="#e58139f5"] ;
381 -> 383 ;
384 [label="gini = 0.0\nsamples = 47\nvalue = [71, 0]\nclass = M", fillcolor="#e58139ff"] ;
383 -> 384 ;
385 [label="ACS3.Gmp_Parameters_ToolUpper_GrindingRunningMeter <= 786.18\ngini = 0.14\nsamples = 54\nvalue = [75, 6]\nclass = M", fillcolor="#e58139eb"] ;
383 -> 385 ;
386 [label="THICK <= 0.68\ngini = 0.4\nsamples = 12\nvalue = [13, 5]\nclass = M", fillcolor="#e581399d"] ;
385 -> 386 ;
387 [label="gini = 0.0\nsamples = 3\nvalue = [0, 5]\nclass = a", fillcolor="#399de5ff"] ;
386 -> 387 ;
388 [label="gini = 0.0\nsamples = 9\nvalue = [13, 0]\nclass = M", fillcolor="#e58139ff"] ;
386 -> 388 ;
389 [label="ACS3.Gmp_Parameters_ToolUpper_GrindingRunningMeter <= 930.92\ngini = 0.03\nsamples = 42\nvalue = [62, 1]\nclass = M", fillcolor="#e58139fb"] ;
385 -> 389 ;
390 [label="gini = 0.0\nsamples = 40\nvalue = [61, 0]\nclass = M", fillcolor="#e58139ff"] ;
389 -> 390 ;
391 [label="THICK <= 0.7\ngini = 0.5\nsamples = 2\nvalue = [1, 1]\nclass = M", fillcolor="#e5813900"] ;
389 -> 391 ;
392 [label="gini = 0.0\nsamples = 1\nvalue = [1, 0]\nclass = M", fillcolor="#e58139ff"] ;
391 -> 392 ;
393 [label="gini = 0.0\nsamples = 1\nvalue = [0, 1]\nclass = a", fillcolor="#399de5ff"] ;
391 -> 393 ;
394 [label="ACS3.Gmp_Parameters_ToolUpper_GrindingRunningMeter <= 942.38\ngini = 0.31\nsamples = 327\nvalue = [427, 104]\nclass = M", fillcolor="#e58139c1"] ;
326 -> 394 ;
395 [label="gini = 0.0\nsamples = 1\nvalue = [0, 3]\nclass = a", fillcolor="#399de5ff"] ;
394 -> 395 ;
396 [label="ACS3.Gmp_Parameters_ToolUpper_GrindingRunningMeter <= 1131.09\ngini = 0.31\nsamples = 326\nvalue = [427, 101]\nclass = M", fillcolor="#e58139c3"] ;
394 -> 396 ;
397 [label="ACS3.Gmp_Parameters_ToolUpper_GrindingRunningMeter <= 1126.03\ngini = 0.35\nsamples = 229\nvalue = [292, 84]\nclass = M", fillcolor="#e58139b6"] ;
396 -> 397 ;
398 [label="ACS3.Gmp_Parameters_ToolUpper_GrindingRunningMeter <= 946.21\ngini = 0.34\nsamples = 222\nvalue = [288, 78]\nclass = M", fillcolor="#e58139ba"] ;
397 -> 398 ;
399 [label="gini = 0.0\nsamples = 9\nvalue = [15, 0]\nclass = M", fillcolor="#e58139ff"] ;
398 -> 399 ;
400 [label="ACS3.Gmp_Parameters_ToolUpper_GrindingRunningMeter <= 946.83\ngini = 0.35\nsamples = 213\nvalue = [273, 78]\nclass = M", fillcolor="#e58139b6"] ;
398 -> 400 ;
401 [label="gini = 0.0\nsamples = 1\nvalue = [0, 2]\nclass = a", fillcolor="#399de5ff"] ;
400 -> 401 ;
402 [label="ACS3.Gmp_Parameters_ToolUpper_GrindingRunningMeter <= 969.74\ngini = 0.34\nsamples = 212\nvalue = [273, 76]\nclass = M", fillcolor="#e58139b8"] ;
400 -> 402 ;
403 [label="ACS3.Gmp_Parameters_ToolUpper_GrindingRunningMeter <= 958.88\ngini = 0.21\nsamples = 32\nvalue = [43, 6]\nclass = M", fillcolor="#e58139db"] ;
402 -> 403 ;
404 [label="THICK <= 0.7\ngini = 0.34\nsamples = 20\nvalue = [22, 6]\nclass = M", fillcolor="#e58139b9"] ;
403 -> 404 ;
405 [label="THICK <= 0.62\ngini = 0.15\nsamples = 17\nvalue = [22, 2]\nclass = M", fillcolor="#e58139e8"] ;
404 -> 405 ;
406 [label="gini = 0.0\nsamples = 11\nvalue = [17, 0]\nclass = M", fillcolor="#e58139ff"] ;
405 -> 406 ;
407 [label="ACS3.Gmp_Parameters_ToolUpper_GrindingRunningMeter <= 954.05\ngini = 0.41\nsamples = 6\nvalue = [5, 2]\nclass = M", fillcolor="#e5813999"] ;
405 -> 407 ;
408 [label="gini = 0.0\nsamples = 3\nvalue = [4, 0]\nclass = M", fillcolor="#e58139ff"] ;
407 -> 408 ;
409 [label="ACS3.Gmp_Parameters_ToolUpper_GrindingRunningMeter <= 955.46\ngini = 0.44\nsamples = 3\nvalue = [1, 2]\nclass = a", fillcolor="#399de57f"] ;
407 -> 409 ;
410 [label="gini = 0.0\nsamples = 1\nvalue = [0, 1]\nclass = a", fillcolor="#399de5ff"] ;
409 -> 410 ;
411 [label="THICK <= 0.66\ngini = 0.5\nsamples = 2\nvalue = [1, 1]\nclass = M", fillcolor="#e5813900"] ;
409 -> 411 ;
412 [label="gini = 0.0\nsamples = 1\nvalue = [0, 1]\nclass = a", fillcolor="#399de5ff"] ;
411 -> 412 ;
413 [label="gini = 0.0\nsamples = 1\nvalue = [1, 0]\nclass = M", fillcolor="#e58139ff"] ;
411 -> 413 ;
414 [label="gini = 0.0\nsamples = 3\nvalue = [0, 4]\nclass = a", fillcolor="#399de5ff"] ;
404 -> 414 ;
415 [label="gini = 0.0\nsamples = 12\nvalue = [21, 0]\nclass = M", fillcolor="#e58139ff"] ;
403 -> 415 ;
416 [label="THICK <= 0.62\ngini = 0.36\nsamples = 180\nvalue = [230, 70]\nclass = M", fillcolor="#e58139b1"] ;
402 -> 416 ;
417 [label="THICK <= 0.59\ngini = 0.02\nsamples = 47\nvalue = [85, 1]\nclass = M", fillcolor="#e58139fc"] ;
416 -> 417 ;
418 [label="gini = 0.0\nsamples = 1\nvalue = [0, 1]\nclass = a", fillcolor="#399de5ff"] ;
417 -> 418 ;
419 [label="gini = 0.0\nsamples = 46\nvalue = [85, 0]\nclass = M", fillcolor="#e58139ff"] ;
417 -> 419 ;
420 [label="THICK <= 0.62\ngini = 0.44\nsamples = 133\nvalue = [145, 69]\nclass = M", fillcolor="#e5813986"] ;
416 -> 420 ;
421 [label="gini = 0.0\nsamples = 10\nvalue = [0, 18]\nclass = a", fillcolor="#399de5ff"] ;
420 -> 421 ;
422 [label="ACS3.Gmp_Parameters_ToolUpper_GrindingRunningMeter <= 1017.57\ngini = 0.38\nsamples = 123\nvalue = [145, 51]\nclass = M", fillcolor="#e58139a5"] ;
420 -> 422 ;
423 [label="ACS3.Gmp_Parameters_ToolUpper_GrindingRunningMeter <= 996.72\ngini = 0.49\nsamples = 48\nvalue = [51, 36]\nclass = M", fillcolor="#e581394b"] ;
422 -> 423 ;
424 [label="ACS3.Gmp_Parameters_ToolUpper_GrindingRunningMeter <= 977.49\ngini = 0.45\nsamples = 33\nvalue = [39, 21]\nclass = M", fillcolor="#e5813976"] ;
423 -> 424 ;
425 [label="THICK <= 0.65\ngini = 0.5\nsamples = 12\nvalue = [12, 13]\nclass = a", fillcolor="#399de514"] ;
424 -> 425 ;
426 [label="gini = 0.0\nsamples = 5\nvalue = [0, 11]\nclass = a", fillcolor="#399de5ff"] ;
425 -> 426 ;
427 [label="THICK <= 0.7\ngini = 0.24\nsamples = 7\nvalue = [12, 2]\nclass = M", fillcolor="#e58139d4"] ;
425 -> 427 ;
428 [label="gini = 0.0\nsamples = 6\nvalue = [12, 0]\nclass = M", fillcolor="#e58139ff"] ;
427 -> 428 ;
429 [label="gini = 0.0\nsamples = 1\nvalue = [0, 2]\nclass = a", fillcolor="#399de5ff"] ;
427 -> 429 ;
430 [label="THICK <= 0.65\ngini = 0.35\nsamples = 21\nvalue = [27, 8]\nclass = M", fillcolor="#e58139b3"] ;
424 -> 430 ;
431 [label="gini = 0.0\nsamples = 7\nvalue = [0, 8]\nclass = a", fillcolor="#399de5ff"] ;
430 -> 431 ;
432 [label="gini = 0.0\nsamples = 14\nvalue = [27, 0]\nclass = M", fillcolor="#e58139ff"] ;
430 -> 432 ;
433 [label="ACS3.Gmp_Parameters_ToolUpper_GrindingRunningMeter <= 999.46\ngini = 0.49\nsamples = 15\nvalue = [12, 15]\nclass = a", fillcolor="#399de533"] ;
423 -> 433 ;
434 [label="gini = 0.0\nsamples = 1\nvalue = [0, 2]\nclass = a", fillcolor="#399de5ff"] ;
433 -> 434 ;
435 [label="THICK <= 0.65\ngini = 0.5\nsamples = 14\nvalue = [12, 13]\nclass = a", fillcolor="#399de514"] ;
433 -> 435 ;
436 [label="gini = 0.0\nsamples = 5\nvalue = [0, 11]\nclass = a", fillcolor="#399de5ff"] ;
435 -> 436 ;
437 [label="THICK <= 0.69\ngini = 0.24\nsamples = 9\nvalue = [12, 2]\nclass = M", fillcolor="#e58139d4"] ;
435 -> 437 ;
438 [label="gini = 0.0\nsamples = 5\nvalue = [8, 0]\nclass = M", fillcolor="#e58139ff"] ;
437 -> 438 ;
439 [label="THICK <= 0.71\ngini = 0.44\nsamples = 4\nvalue = [4, 2]\nclass = M", fillcolor="#e581397f"] ;
437 -> 439 ;
440 [label="gini = 0.0\nsamples = 1\nvalue = [0, 2]\nclass = a", fillcolor="#399de5ff"] ;
439 -> 440 ;
441 [label="gini = 0.0\nsamples = 3\nvalue = [4, 0]\nclass = M", fillcolor="#e58139ff"] ;
439 -> 441 ;
442 [label="ACS3.Gmp_Parameters_ToolUpper_GrindingRunningMeter <= 1106.89\ngini = 0.24\nsamples = 75\nvalue = [94, 15]\nclass = M", fillcolor="#e58139d6"] ;
422 -> 442 ;
443 [label="THICK <= 0.71\ngini = 0.18\nsamples = 56\nvalue = [72, 8]\nclass = M", fillcolor="#e58139e3"] ;
442 -> 443 ;
444 [label="ACS3.Gmp_Parameters_ToolUpper_GrindingRunningMeter <= 1056.96\ngini = 0.12\nsamples = 54\nvalue = [72, 5]\nclass = M", fillcolor="#e58139ed"] ;
443 -> 444 ;
445 [label="gini = 0.0\nsamples = 24\nvalue = [35, 0]\nclass = M", fillcolor="#e58139ff"] ;
444 -> 445 ;
446 [label="ACS3.Gmp_Parameters_ToolUpper_GrindingRunningMeter <= 1060.88\ngini = 0.21\nsamples = 30\nvalue = [37, 5]\nclass = M", fillcolor="#e58139dd"] ;
444 -> 446 ;
447 [label="THICK <= 0.67\ngini = 0.44\nsamples = 3\nvalue = [1, 2]\nclass = a", fillcolor="#399de57f"] ;
446 -> 447 ;
448 [label="gini = 0.0\nsamples = 2\nvalue = [0, 2]\nclass = a", fillcolor="#399de5ff"] ;
447 -> 448 ;
449 [label="gini = 0.0\nsamples = 1\nvalue = [1, 0]\nclass = M", fillcolor="#e58139ff"] ;
447 -> 449 ;
450 [label="ACS3.Gmp_Parameters_ToolUpper_GrindingRunningMeter <= 1089.15\ngini = 0.14\nsamples = 27\nvalue = [36, 3]\nclass = M", fillcolor="#e58139ea"] ;
446 -> 450 ;
451 [label="THICK <= 0.64\ngini = 0.21\nsamples = 18\nvalue = [22, 3]\nclass = M", fillcolor="#e58139dc"] ;
450 -> 451 ;
452 [label="gini = 0.0\nsamples = 3\nvalue = [0, 3]\nclass = a", fillcolor="#399de5ff"] ;
451 -> 452 ;
453 [label="gini = 0.0\nsamples = 15\nvalue = [22, 0]\nclass = M", fillcolor="#e58139ff"] ;
451 -> 453 ;
454 [label="gini = 0.0\nsamples = 9\nvalue = [14, 0]\nclass = M", fillcolor="#e58139ff"] ;
450 -> 454 ;
455 [label="gini = 0.0\nsamples = 2\nvalue = [0, 3]\nclass = a", fillcolor="#399de5ff"] ;
443 -> 455 ;
456 [label="THICK <= 0.69\ngini = 0.37\nsamples = 19\nvalue = [22, 7]\nclass = M", fillcolor="#e58139ae"] ;
442 -> 456 ;
457 [label="gini = 0.0\nsamples = 14\nvalue = [22, 0]\nclass = M", fillcolor="#e58139ff"] ;
456 -> 457 ;
458 [label="gini = 0.0\nsamples = 5\nvalue = [0, 7]\nclass = a", fillcolor="#399de5ff"] ;
456 -> 458 ;
459 [label="THICK <= 0.69\ngini = 0.48\nsamples = 7\nvalue = [4, 6]\nclass = a", fillcolor="#399de555"] ;
397 -> 459 ;
460 [label="THICK <= 0.63\ngini = 0.44\nsamples = 5\nvalue = [4, 2]\nclass = M", fillcolor="#e581397f"] ;
459 -> 460 ;
461 [label="ACS3.Gmp_Parameters_ToolUpper_GrindingRunningMeter <= 1130.77\ngini = 0.44\nsamples = 2\nvalue = [1, 2]\nclass = a", fillcolor="#399de57f"] ;
460 -> 461 ;
462 [label="gini = 0.0\nsamples = 1\nvalue = [1, 0]\nclass = M", fillcolor="#e58139ff"] ;
461 -> 462 ;
463 [label="gini = 0.0\nsamples = 1\nvalue = [0, 2]\nclass = a", fillcolor="#399de5ff"] ;
461 -> 463 ;
464 [label="gini = 0.0\nsamples = 3\nvalue = [3, 0]\nclass = M", fillcolor="#e58139ff"] ;
460 -> 464 ;
465 [label="gini = 0.0\nsamples = 2\nvalue = [0, 4]\nclass = a", fillcolor="#399de5ff"] ;
459 -> 465 ;
466 [label="ACS3.Gmp_Parameters_ToolUpper_GrindingRunningMeter <= 1193.0\ngini = 0.2\nsamples = 97\nvalue = [135, 17]\nclass = M", fillcolor="#e58139df"] ;
396 -> 466 ;
467 [label="THICK <= 0.62\ngini = 0.02\nsamples = 59\nvalue = [89, 1]\nclass = M", fillcolor="#e58139fc"] ;
466 -> 467 ;
468 [label="ACS3.Gmp_Parameters_ToolUpper_GrindingRunningMeter <= 1141.83\ngini = 0.1\nsamples = 10\nvalue = [17, 1]\nclass = M", fillcolor="#e58139f0"] ;
467 -> 468 ;
469 [label="ACS3.Gmp_Parameters_ToolUpper_GrindingRunningMeter <= 1139.03\ngini = 0.38\nsamples = 3\nvalue = [3, 1]\nclass = M", fillcolor="#e58139aa"] ;
468 -> 469 ;
470 [label="gini = 0.0\nsamples = 2\nvalue = [3, 0]\nclass = M", fillcolor="#e58139ff"] ;
469 -> 470 ;
471 [label="gini = 0.0\nsamples = 1\nvalue = [0, 1]\nclass = a", fillcolor="#399de5ff"] ;
469 -> 471 ;
472 [label="gini = 0.0\nsamples = 7\nvalue = [14, 0]\nclass = M", fillcolor="#e58139ff"] ;
468 -> 472 ;
473 [label="gini = 0.0\nsamples = 49\nvalue = [72, 0]\nclass = M", fillcolor="#e58139ff"] ;
467 -> 473 ;
474 [label="THICK <= 0.64\ngini = 0.38\nsamples = 38\nvalue = [46, 16]\nclass = M", fillcolor="#e58139a6"] ;
466 -> 474 ;
475 [label="gini = 0.0\nsamples = 21\nvalue = [35, 0]\nclass = M", fillcolor="#e58139ff"] ;
474 -> 475 ;
476 [label="ACS3.Gmp_Parameters_ToolUpper_GrindingRunningMeter <= 1206.89\ngini = 0.48\nsamples = 17\nvalue = [11, 16]\nclass = a", fillcolor="#399de550"] ;
474 -> 476 ;
477 [label="ACS3.Gmp_Parameters_ToolUpper_GrindingRunningMeter <= 1194.6\ngini = 0.43\nsamples = 7\nvalue = [9, 4]\nclass = M", fillcolor="#e581398e"] ;
476 -> 477 ;
478 [label="gini = 0.0\nsamples = 1\nvalue = [0, 2]\nclass = a", fillcolor="#399de5ff"] ;
477 -> 478 ;
479 [label="ACS3.Gmp_Parameters_ToolUpper_GrindingRunningMeter <= 1202.76\ngini = 0.3\nsamples = 6\nvalue = [9, 2]\nclass = M", fillcolor="#e58139c6"] ;
477 -> 479 ;
480 [label="THICK <= 0.66\ngini = 0.2\nsamples = 4\nvalue = [8, 1]\nclass = M", fillcolor="#e58139df"] ;
479 -> 480 ;
481 [label="gini = 0.0\nsamples = 1\nvalue = [0, 1]\nclass = a", fillcolor="#399de5ff"] ;
480 -> 481 ;
482 [label="gini = 0.0\nsamples = 3\nvalue = [8, 0]\nclass = M", fillcolor="#e58139ff"] ;
480 -> 482 ;
483 [label="ACS3.Gmp_Parameters_ToolUpper_GrindingRunningMeter <= 1205.54\ngini = 0.5\nsamples = 2\nvalue = [1, 1]\nclass = M", fillcolor="#e5813900"] ;
479 -> 483 ;
484 [label="gini = 0.0\nsamples = 1\nvalue = [0, 1]\nclass = a", fillcolor="#399de5ff"] ;
483 -> 484 ;
485 [label="gini = 0.0\nsamples = 1\nvalue = [1, 0]\nclass = M", fillcolor="#e58139ff"] ;
483 -> 485 ;
486 [label="ACS3.Gmp_Parameters_ToolUpper_GrindingRunningMeter <= 1213.77\ngini = 0.24\nsamples = 10\nvalue = [2, 12]\nclass = a", fillcolor="#399de5d4"] ;
476 -> 486 ;
487 [label="gini = 0.0\nsamples = 3\nvalue = [0, 6]\nclass = a", fillcolor="#399de5ff"] ;
486 -> 487 ;
488 [label="ACS3.Gmp_Parameters_ToolUpper_GrindingRunningMeter <= 1216.32\ngini = 0.38\nsamples = 7\nvalue = [2, 6]\nclass = a", fillcolor="#399de5aa"] ;
486 -> 488 ;
489 [label="gini = 0.0\nsamples = 1\nvalue = [2, 0]\nclass = M", fillcolor="#e58139ff"] ;
488 -> 489 ;
490 [label="gini = 0.0\nsamples = 6\nvalue = [0, 6]\nclass = a", fillcolor="#399de5ff"] ;
488 -> 490 ;
491 [label="THICK <= 0.72\ngini = 0.26\nsamples = 1100\nvalue = [1514, 282]\nclass = M", fillcolor="#e58139d0"] ;
325 -> 491 ;
492 [label="ACS3.Gmp_Parameters_ToolUpper_GrindingRunningMeter <= 658.57\ngini = 0.25\nsamples = 1043\nvalue = [1458, 248]\nclass = M", fillcolor="#e58139d4"] ;
491 -> 492 ;
493 [label="THICK <= 0.58\ngini = 0.13\nsamples = 302\nvalue = [446, 34]\nclass = M", fillcolor="#e58139ec"] ;
492 -> 493 ;
494 [label="THICK <= 0.57\ngini = 0.5\nsamples = 10\nvalue = [8, 9]\nclass = a", fillcolor="#399de51c"] ;
493 -> 494 ;
495 [label="gini = 0.0\nsamples = 4\nvalue = [8, 0]\nclass = M", fillcolor="#e58139ff"] ;
494 -> 495 ;
496 [label="gini = 0.0\nsamples = 6\nvalue = [0, 9]\nclass = a", fillcolor="#399de5ff"] ;
494 -> 496 ;
497 [label="THICK <= 0.68\ngini = 0.1\nsamples = 292\nvalue = [438, 25]\nclass = M", fillcolor="#e58139f0"] ;
493 -> 497 ;
498 [label="THICK <= 0.68\ngini = 0.15\nsamples = 193\nvalue = [274, 25]\nclass = M", fillcolor="#e58139e8"] ;
497 -> 498 ;
499 [label="THICK <= 0.62\ngini = 0.14\nsamples = 192\nvalue = [274, 23]\nclass = M", fillcolor="#e58139ea"] ;
498 -> 499 ;
500 [label="THICK <= 0.58\ngini = 0.02\nsamples = 77\nvalue = [117, 1]\nclass = M", fillcolor="#e58139fd"] ;
499 -> 500 ;
501 [label="THICK <= 0.58\ngini = 0.08\nsamples = 15\nvalue = [22, 1]\nclass = M", fillcolor="#e58139f3"] ;
500 -> 501 ;
502 [label="gini = 0.0\nsamples = 14\nvalue = [22, 0]\nclass = M", fillcolor="#e58139ff"] ;
501 -> 502 ;
503 [label="gini = 0.0\nsamples = 1\nvalue = [0, 1]\nclass = a", fillcolor="#399de5ff"] ;
501 -> 503 ;
504 [label="gini = 0.0\nsamples = 62\nvalue = [95, 0]\nclass = M", fillcolor="#e58139ff"] ;
500 -> 504 ;
505 [label="ACS3.Gmp_Parameters_ToolUpper_GrindingRunningMeter <= 431.34\ngini = 0.22\nsamples = 115\nvalue = [157, 22]\nclass = M", fillcolor="#e58139db"] ;
499 -> 505 ;
506 [label="THICK <= 0.62\ngini = 0.38\nsamples = 8\nvalue = [3, 9]\nclass = a", fillcolor="#399de5aa"] ;
505 -> 506 ;
507 [label="gini = 0.0\nsamples = 1\nvalue = [2, 0]\nclass = M", fillcolor="#e58139ff"] ;
506 -> 507 ;
508 [label="THICK <= 0.66\ngini = 0.18\nsamples = 7\nvalue = [1, 9]\nclass = a", fillcolor="#399de5e3"] ;
506 -> 508 ;
509 [label="THICK <= 0.63\ngini = 0.44\nsamples = 2\nvalue = [1, 2]\nclass = a", fillcolor="#399de57f"] ;
508 -> 509 ;
510 [label="gini = 0.0\nsamples = 1\nvalue = [0, 2]\nclass = a", fillcolor="#399de5ff"] ;
509 -> 510 ;
511 [label="gini = 0.0\nsamples = 1\nvalue = [1, 0]\nclass = M", fillcolor="#e58139ff"] ;
509 -> 511 ;
512 [label="gini = 0.0\nsamples = 5\nvalue = [0, 7]\nclass = a", fillcolor="#399de5ff"] ;
508 -> 512 ;
513 [label="THICK <= 0.62\ngini = 0.14\nsamples = 107\nvalue = [154, 13]\nclass = M", fillcolor="#e58139e9"] ;
505 -> 513 ;
514 [label="gini = 0.0\nsamples = 9\nvalue = [0, 11]\nclass = a", fillcolor="#399de5ff"] ;
513 -> 514 ;
515 [label="ACS3.Gmp_Parameters_ToolUpper_GrindingRunningMeter <= 442.17\ngini = 0.03\nsamples = 98\nvalue = [154, 2]\nclass = M", fillcolor="#e58139fc"] ;
513 -> 515 ;
516 [label="ACS3.Gmp_Parameters_ToolUpper_GrindingRunningMeter <= 436.1\ngini = 0.35\nsamples = 6\nvalue = [7, 2]\nclass = M", fillcolor="#e58139b6"] ;
515 -> 516 ;
517 [label="gini = 0.0\nsamples = 3\nvalue = [6, 0]\nclass = M", fillcolor="#e58139ff"] ;
516 -> 517 ;
518 [label="THICK <= 0.65\ngini = 0.44\nsamples = 3\nvalue = [1, 2]\nclass = a", fillcolor="#399de57f"] ;
516 -> 518 ;
519 [label="gini = 0.0\nsamples = 1\nvalue = [1, 0]\nclass = M", fillcolor="#e58139ff"] ;
518 -> 519 ;
520 [label="gini = 0.0\nsamples = 2\nvalue = [0, 2]\nclass = a", fillcolor="#399de5ff"] ;
518 -> 520 ;
521 [label="gini = 0.0\nsamples = 92\nvalue = [147, 0]\nclass = M", fillcolor="#e58139ff"] ;
515 -> 521 ;
522 [label="gini = 0.0\nsamples = 1\nvalue = [0, 2]\nclass = a", fillcolor="#399de5ff"] ;
498 -> 522 ;
523 [label="gini = 0.0\nsamples = 99\nvalue = [164, 0]\nclass = M", fillcolor="#e58139ff"] ;
497 -> 523 ;
524 [label="THICK <= 0.62\ngini = 0.29\nsamples = 741\nvalue = [1012, 214]\nclass = M", fillcolor="#e58139c9"] ;
492 -> 524 ;
525 [label="ACS3.Gmp_Parameters_ToolUpper_GrindingRunningMeter <= 889.23\ngini = 0.36\nsamples = 282\nvalue = [355, 110]\nclass = M", fillcolor="#e58139b0"] ;
524 -> 525 ;
526 [label="THICK <= 0.57\ngini = 0.46\nsamples = 140\nvalue = [147, 83]\nclass = M", fillcolor="#e581396f"] ;
525 -> 526 ;
527 [label="gini = 0.0\nsamples = 33\nvalue = [62, 0]\nclass = M", fillcolor="#e58139ff"] ;
526 -> 527 ;
528 [label="ACS3.Gmp_Parameters_ToolUpper_GrindingRunningMeter <= 816.57\ngini = 0.5\nsamples = 107\nvalue = [85, 83]\nclass = M", fillcolor="#e5813906"] ;
526 -> 528 ;
529 [label="THICK <= 0.62\ngini = 0.44\nsamples = 62\nvalue = [68, 32]\nclass = M", fillcolor="#e5813987"] ;
528 -> 529 ;
530 [label="ACS3.Gmp_Parameters_ToolUpper_GrindingRunningMeter <= 682.45\ngini = 0.31\nsamples = 45\nvalue = [58, 14]\nclass = M", fillcolor="#e58139c1"] ;
529 -> 530 ;
531 [label="gini = 0.0\nsamples = 4\nvalue = [0, 7]\nclass = a", fillcolor="#399de5ff"] ;
530 -> 531 ;
532 [label="THICK <= 0.61\ngini = 0.19\nsamples = 41\nvalue = [58, 7]\nclass = M", fillcolor="#e58139e0"] ;
530 -> 532 ;
533 [label="gini = 0.0\nsamples = 26\nvalue = [41, 0]\nclass = M", fillcolor="#e58139ff"] ;
532 -> 533 ;
534 [label="THICK <= 0.61\ngini = 0.41\nsamples = 15\nvalue = [17, 7]\nclass = M", fillcolor="#e5813996"] ;
532 -> 534 ;
535 [label="gini = 0.0\nsamples = 6\nvalue = [0, 7]\nclass = a", fillcolor="#399de5ff"] ;
534 -> 535 ;
536 [label="gini = 0.0\nsamples = 9\nvalue = [17, 0]\nclass = M", fillcolor="#e58139ff"] ;
534 -> 536 ;
537 [label="ACS3.Gmp_Parameters_ToolUpper_GrindingRunningMeter <= 770.13\ngini = 0.46\nsamples = 17\nvalue = [10, 18]\nclass = a", fillcolor="#399de571"] ;
529 -> 537 ;
538 [label="ACS3.Gmp_Parameters_ToolUpper_GrindingRunningMeter <= 737.17\ngini = 0.49\nsamples = 10\nvalue = [10, 8]\nclass = M", fillcolor="#e5813933"] ;
537 -> 538 ;
539 [label="gini = 0.0\nsamples = 5\nvalue = [0, 8]\nclass = a", fillcolor="#399de5ff"] ;
538 -> 539 ;
540 [label="gini = 0.0\nsamples = 5\nvalue = [10, 0]\nclass = M", fillcolor="#e58139ff"] ;
538 -> 540 ;
541 [label="gini = 0.0\nsamples = 7\nvalue = [0, 10]\nclass = a", fillcolor="#399de5ff"] ;
537 -> 541 ;
542 [label="ACS3.Gmp_Parameters_ToolUpper_GrindingRunningMeter <= 868.29\ngini = 0.38\nsamples = 45\nvalue = [17, 51]\nclass = a", fillcolor="#399de5aa"] ;
528 -> 542 ;
543 [label="ACS3.Gmp_Parameters_ToolUpper_GrindingRunningMeter <= 864.18\ngini = 0.33\nsamples = 36\nvalue = [12, 45]\nclass = a", fillcolor="#399de5bb"] ;
542 -> 543 ;
544 [label="THICK <= 0.6\ngini = 0.39\nsamples = 32\nvalue = [12, 34]\nclass = a", fillcolor="#399de5a5"] ;
543 -> 544 ;
545 [label="ACS3.Gmp_Parameters_ToolUpper_GrindingRunningMeter <= 845.0\ngini = 0.48\nsamples = 13\nvalue = [11, 7]\nclass = M", fillcolor="#e581395d"] ;
544 -> 545 ;
546 [label="gini = 0.0\nsamples = 5\nvalue = [6, 0]\nclass = M", fillcolor="#e58139ff"] ;
545 -> 546 ;
547 [label="THICK <= 0.57\ngini = 0.49\nsamples = 8\nvalue = [5, 7]\nclass = a", fillcolor="#399de549"] ;
545 -> 547 ;
548 [label="gini = 0.0\nsamples = 4\nvalue = [0, 7]\nclass = a", fillcolor="#399de5ff"] ;
547 -> 548 ;
549 [label="gini = 0.0\nsamples = 4\nvalue = [5, 0]\nclass = M", fillcolor="#e58139ff"] ;
547 -> 549 ;
550 [label="ACS3.Gmp_Parameters_ToolUpper_GrindingRunningMeter <= 821.35\ngini = 0.07\nsamples = 19\nvalue = [1, 27]\nclass = a", fillcolor="#399de5f6"] ;
544 -> 550 ;
551 [label="THICK <= 0.61\ngini = 0.44\nsamples = 3\nvalue = [1, 2]\nclass = a", fillcolor="#399de57f"] ;
550 -> 551 ;
552 [label="gini = 0.0\nsamples = 1\nvalue = [1, 0]\nclass = M", fillcolor="#e58139ff"] ;
551 -> 552 ;
553 [label="gini = 0.0\nsamples = 2\nvalue = [0, 2]\nclass = a", fillcolor="#399de5ff"] ;
551 -> 553 ;
554 [label="gini = 0.0\nsamples = 16\nvalue = [0, 25]\nclass = a", fillcolor="#399de5ff"] ;
550 -> 554 ;
555 [label="gini = 0.0\nsamples = 4\nvalue = [0, 11]\nclass = a", fillcolor="#399de5ff"] ;
543 -> 555 ;
556 [label="THICK <= 0.57\ngini = 0.5\nsamples = 9\nvalue = [5, 6]\nclass = a", fillcolor="#399de52a"] ;
542 -> 556 ;
557 [label="gini = 0.0\nsamples = 3\nvalue = [0, 3]\nclass = a", fillcolor="#399de5ff"] ;
556 -> 557 ;
558 [label="ACS3.Gmp_Parameters_ToolUpper_GrindingRunningMeter <= 887.86\ngini = 0.47\nsamples = 6\nvalue = [5, 3]\nclass = M", fillcolor="#e5813966"] ;
556 -> 558 ;
559 [label="ACS3.Gmp_Parameters_ToolUpper_GrindingRunningMeter <= 879.64\ngini = 0.28\nsamples = 5\nvalue = [5, 1]\nclass = M", fillcolor="#e58139cc"] ;
558 -> 559 ;
560 [label="gini = 0.0\nsamples = 2\nvalue = [3, 0]\nclass = M", fillcolor="#e58139ff"] ;
559 -> 560 ;
561 [label="ACS3.Gmp_Parameters_ToolUpper_GrindingRunningMeter <= 881.08\ngini = 0.44\nsamples = 3\nvalue = [2, 1]\nclass = M", fillcolor="#e581397f"] ;
559 -> 561 ;
562 [label="gini = 0.0\nsamples = 1\nvalue = [0, 1]\nclass = a", fillcolor="#399de5ff"] ;
561 -> 562 ;
563 [label="gini = 0.0\nsamples = 2\nvalue = [2, 0]\nclass = M", fillcolor="#e58139ff"] ;
561 -> 563 ;
564 [label="gini = 0.0\nsamples = 1\nvalue = [0, 2]\nclass = a", fillcolor="#399de5ff"] ;
558 -> 564 ;
565 [label="THICK <= 0.62\ngini = 0.2\nsamples = 142\nvalue = [208, 27]\nclass = M", fillcolor="#e58139de"] ;
525 -> 565 ;
566 [label="ACS3.Gmp_Parameters_ToolUpper_GrindingRunningMeter <= 1213.28\ngini = 0.11\nsamples = 133\nvalue = [208, 13]\nclass = M", fillcolor="#e58139ef"] ;
565 -> 566 ;
567 [label="ACS3.Gmp_Parameters_ToolUpper_GrindingRunningMeter <= 1025.99\ngini = 0.1\nsamples = 132\nvalue = [208, 11]\nclass = M", fillcolor="#e58139f2"] ;
566 -> 567 ;
568 [label="gini = 0.0\nsamples = 80\nvalue = [133, 0]\nclass = M", fillcolor="#e58139ff"] ;
567 -> 568 ;
569 [label="ACS3.Gmp_Parameters_ToolUpper_GrindingRunningMeter <= 1041.18\ngini = 0.22\nsamples = 52\nvalue = [75, 11]\nclass = M", fillcolor="#e58139da"] ;
567 -> 569 ;
570 [label="THICK <= 0.61\ngini = 0.34\nsamples = 9\nvalue = [3, 11]\nclass = a", fillcolor="#399de5b9"] ;
569 -> 570 ;
571 [label="gini = 0.0\nsamples = 7\nvalue = [0, 11]\nclass = a", fillcolor="#399de5ff"] ;
570 -> 571 ;
572 [label="gini = 0.0\nsamples = 2\nvalue = [3, 0]\nclass = M", fillcolor="#e58139ff"] ;
570 -> 572 ;
573 [label="gini = 0.0\nsamples = 43\nvalue = [72, 0]\nclass = M", fillcolor="#e58139ff"] ;
569 -> 573 ;
574 [label="gini = 0.0\nsamples = 1\nvalue = [0, 2]\nclass = a", fillcolor="#399de5ff"] ;
566 -> 574 ;
575 [label="gini = 0.0\nsamples = 9\nvalue = [0, 14]\nclass = a", fillcolor="#399de5ff"] ;
565 -> 575 ;
576 [label="ACS3.Gmp_Parameters_ToolUpper_GrindingRunningMeter <= 930.31\ngini = 0.24\nsamples = 459\nvalue = [657, 104]\nclass = M", fillcolor="#e58139d7"] ;
524 -> 576 ;
577 [label="ACS3.Gmp_Parameters_ToolUpper_GrindingRunningMeter <= 813.54\ngini = 0.34\nsamples = 208\nvalue = [270, 74]\nclass = M", fillcolor="#e58139b9"] ;
576 -> 577 ;
578 [label="ACS3.Gmp_Parameters_ToolUpper_GrindingRunningMeter <= 768.56\ngini = 0.22\nsamples = 116\nvalue = [167, 24]\nclass = M", fillcolor="#e58139da"] ;
577 -> 578 ;
579 [label="ACS3.Gmp_Parameters_ToolUpper_GrindingRunningMeter <= 764.78\ngini = 0.3\nsamples = 82\nvalue = [106, 24]\nclass = M", fillcolor="#e58139c5"] ;
578 -> 579 ;
580 [label="ACS3.Gmp_Parameters_ToolUpper_GrindingRunningMeter <= 721.35\ngini = 0.19\nsamples = 74\nvalue = [104, 12]\nclass = M", fillcolor="#e58139e2"] ;
579 -> 580 ;
581 [label="ACS3.Gmp_Parameters_ToolUpper_GrindingRunningMeter <= 721.03\ngini = 0.28\nsamples = 45\nvalue = [59, 12]\nclass = M", fillcolor="#e58139cb"] ;
580 -> 581 ;
582 [label="ACS3.Gmp_Parameters_ToolUpper_GrindingRunningMeter <= 686.65\ngini = 0.21\nsamples = 44\nvalue = [59, 8]\nclass = M", fillcolor="#e58139dc"] ;
581 -> 582 ;
583 [label="gini = 0.0\nsamples = 19\nvalue = [28, 0]\nclass = M", fillcolor="#e58139ff"] ;
582 -> 583 ;
584 [label="THICK <= 0.7\ngini = 0.33\nsamples = 25\nvalue = [31, 8]\nclass = M", fillcolor="#e58139bd"] ;
582 -> 584 ;
585 [label="THICK <= 0.62\ngini = 0.06\nsamples = 19\nvalue = [31, 1]\nclass = M", fillcolor="#e58139f7"] ;
584 -> 585 ;
586 [label="gini = 0.0\nsamples = 1\nvalue = [0, 1]\nclass = a", fillcolor="#399de5ff"] ;
585 -> 586 ;
587 [label="gini = 0.0\nsamples = 18\nvalue = [31, 0]\nclass = M", fillcolor="#e58139ff"] ;
585 -> 587 ;
588 [label="gini = 0.0\nsamples = 6\nvalue = [0, 7]\nclass = a", fillcolor="#399de5ff"] ;
584 -> 588 ;
589 [label="gini = 0.0\nsamples = 1\nvalue = [0, 4]\nclass = a", fillcolor="#399de5ff"] ;
581 -> 589 ;
590 [label="gini = 0.0\nsamples = 29\nvalue = [45, 0]\nclass = M", fillcolor="#e58139ff"] ;
580 -> 590 ;
591 [label="ACS3.Gmp_Parameters_ToolUpper_GrindingRunningMeter <= 766.83\ngini = 0.24\nsamples = 8\nvalue = [2, 12]\nclass = a", fillcolor="#399de5d4"] ;
579 -> 591 ;
592 [label="gini = 0.0\nsamples = 5\nvalue = [0, 9]\nclass = a", fillcolor="#399de5ff"] ;
591 -> 592 ;
593 [label="THICK <= 0.68\ngini = 0.48\nsamples = 3\nvalue = [2, 3]\nclass = a", fillcolor="#399de555"] ;
591 -> 593 ;
594 [label="gini = 0.0\nsamples = 2\nvalue = [0, 3]\nclass = a", fillcolor="#399de5ff"] ;
593 -> 594 ;
595 [label="gini = 0.0\nsamples = 1\nvalue = [2, 0]\nclass = M", fillcolor="#e58139ff"] ;
593 -> 595 ;
596 [label="gini = 0.0\nsamples = 34\nvalue = [61, 0]\nclass = M", fillcolor="#e58139ff"] ;
578 -> 596 ;
597 [label="THICK <= 0.7\ngini = 0.44\nsamples = 92\nvalue = [103, 50]\nclass = M", fillcolor="#e5813983"] ;
577 -> 597 ;
598 [label="ACS3.Gmp_Parameters_ToolUpper_GrindingRunningMeter <= 867.17\ngini = 0.48\nsamples = 75\nvalue = [75, 50]\nclass = M", fillcolor="#e5813955"] ;
597 -> 598 ;
599 [label="THICK <= 0.63\ngini = 0.43\nsamples = 27\nvalue = [14, 31]\nclass = a", fillcolor="#399de58c"] ;
598 -> 599 ;
600 [label="gini = 0.0\nsamples = 11\nvalue = [0, 22]\nclass = a", fillcolor="#399de5ff"] ;
599 -> 600 ;
601 [label="ACS3.Gmp_Parameters_ToolUpper_GrindingRunningMeter <= 855.18\ngini = 0.48\nsamples = 16\nvalue = [14, 9]\nclass = M", fillcolor="#e581395b"] ;
599 -> 601 ;
602 [label="ACS3.Gmp_Parameters_ToolUpper_GrindingRunningMeter <= 815.58\ngini = 0.48\nsamples = 11\nvalue = [6, 9]\nclass = a", fillcolor="#399de555"] ;
601 -> 602 ;
603 [label="gini = 0.0\nsamples = 1\nvalue = [0, 3]\nclass = a", fillcolor="#399de5ff"] ;
602 -> 603 ;
604 [label="ACS3.Gmp_Parameters_ToolUpper_GrindingRunningMeter <= 819.64\ngini = 0.5\nsamples = 10\nvalue = [6, 6]\nclass = M", fillcolor="#e5813900"] ;
602 -> 604 ;
605 [label="gini = 0.0\nsamples = 2\nvalue = [3, 0]\nclass = M", fillcolor="#e58139ff"] ;
604 -> 605 ;
606 [label="THICK <= 0.68\ngini = 0.44\nsamples = 8\nvalue = [3, 6]\nclass = a", fillcolor="#399de57f"] ;
604 -> 606 ;
607 [label="gini = 0.0\nsamples = 3\nvalue = [3, 0]\nclass = M", fillcolor="#e58139ff"] ;
606 -> 607 ;
608 [label="gini = 0.0\nsamples = 5\nvalue = [0, 6]\nclass = a", fillcolor="#399de5ff"] ;
606 -> 608 ;
609 [label="gini = 0.0\nsamples = 5\nvalue = [8, 0]\nclass = M", fillcolor="#e58139ff"] ;
601 -> 609 ;
610 [label="ACS3.Gmp_Parameters_ToolUpper_GrindingRunningMeter <= 897.51\ngini = 0.36\nsamples = 48\nvalue = [61, 19]\nclass = M", fillcolor="#e58139b0"] ;
598 -> 610 ;
611 [label="gini = 0.0\nsamples = 22\nvalue = [36, 0]\nclass = M", fillcolor="#e58139ff"] ;
610 -> 611 ;
612 [label="THICK <= 0.68\ngini = 0.49\nsamples = 26\nvalue = [25, 19]\nclass = M", fillcolor="#e581393d"] ;
610 -> 612 ;
613 [label="gini = 0.0\nsamples = 15\nvalue = [25, 0]\nclass = M", fillcolor="#e58139ff"] ;
612 -> 613 ;
614 [label="gini = 0.0\nsamples = 11\nvalue = [0, 19]\nclass = a", fillcolor="#399de5ff"] ;
612 -> 614 ;
615 [label="gini = 0.0\nsamples = 17\nvalue = [28, 0]\nclass = M", fillcolor="#e58139ff"] ;
597 -> 615 ;
616 [label="THICK <= 0.65\ngini = 0.13\nsamples = 251\nvalue = [387, 30]\nclass = M", fillcolor="#e58139eb"] ;
576 -> 616 ;
617 [label="gini = 0.0\nsamples = 99\nvalue = [176, 0]\nclass = M", fillcolor="#e58139ff"] ;
616 -> 617 ;
618 [label="THICK <= 0.65\ngini = 0.22\nsamples = 152\nvalue = [211, 30]\nclass = M", fillcolor="#e58139db"] ;
616 -> 618 ;
619 [label="THICK <= 0.65\ngini = 0.36\nsamples = 10\nvalue = [3, 10]\nclass = a", fillcolor="#399de5b3"] ;
618 -> 619 ;
620 [label="THICK <= 0.65\ngini = 0.48\nsamples = 4\nvalue = [2, 3]\nclass = a", fillcolor="#399de555"] ;
619 -> 620 ;
621 [label="gini = 0.0\nsamples = 2\nvalue = [0, 3]\nclass = a", fillcolor="#399de5ff"] ;
620 -> 621 ;
622 [label="gini = 0.0\nsamples = 2\nvalue = [2, 0]\nclass = M", fillcolor="#e58139ff"] ;
620 -> 622 ;
623 [label="ACS3.Gmp_Parameters_ToolUpper_GrindingRunningMeter <= 1137.72\ngini = 0.22\nsamples = 6\nvalue = [1, 7]\nclass = a", fillcolor="#399de5db"] ;
619 -> 623 ;
624 [label="gini = 0.0\nsamples = 1\nvalue = [1, 0]\nclass = M", fillcolor="#e58139ff"] ;
623 -> 624 ;
625 [label="gini = 0.0\nsamples = 5\nvalue = [0, 7]\nclass = a", fillcolor="#399de5ff"] ;
623 -> 625 ;
626 [label="THICK <= 0.71\ngini = 0.16\nsamples = 142\nvalue = [208, 20]\nclass = M", fillcolor="#e58139e6"] ;
618 -> 626 ;
627 [label="ACS3.Gmp_Parameters_ToolUpper_GrindingRunningMeter <= 1044.62\ngini = 0.2\nsamples = 113\nvalue = [156, 20]\nclass = M", fillcolor="#e58139de"] ;
626 -> 627 ;
628 [label="ACS3.Gmp_Parameters_ToolUpper_GrindingRunningMeter <= 935.77\ngini = 0.03\nsamples = 52\nvalue = [76, 1]\nclass = M", fillcolor="#e58139fc"] ;
627 -> 628 ;
629 [label="ACS3.Gmp_Parameters_ToolUpper_GrindingRunningMeter <= 934.37\ngini = 0.32\nsamples = 4\nvalue = [4, 1]\nclass = M", fillcolor="#e58139bf"] ;
628 -> 629 ;
630 [label="gini = 0.0\nsamples = 3\nvalue = [4, 0]\nclass = M", fillcolor="#e58139ff"] ;
629 -> 630 ;
631 [label="gini = 0.0\nsamples = 1\nvalue = [0, 1]\nclass = a", fillcolor="#399de5ff"] ;
629 -> 631 ;
632 [label="gini = 0.0\nsamples = 48\nvalue = [72, 0]\nclass = M", fillcolor="#e58139ff"] ;
628 -> 632 ;
633 [label="ACS3.Gmp_Parameters_ToolUpper_GrindingRunningMeter <= 1159.87\ngini = 0.31\nsamples = 61\nvalue = [80, 19]\nclass = M", fillcolor="#e58139c2"] ;
627 -> 633 ;
634 [label="THICK <= 0.69\ngini = 0.4\nsamples = 44\nvalue = [50, 19]\nclass = M", fillcolor="#e581399e"] ;
633 -> 634 ;
635 [label="THICK <= 0.67\ngini = 0.28\nsamples = 39\nvalue = [50, 10]\nclass = M", fillcolor="#e58139cc"] ;
634 -> 635 ;
636 [label="THICK <= 0.65\ngini = 0.44\nsamples = 18\nvalue = [21, 10]\nclass = M", fillcolor="#e5813986"] ;
635 -> 636 ;
637 [label="gini = 0.0\nsamples = 12\nvalue = [21, 0]\nclass = M", fillcolor="#e58139ff"] ;
636 -> 637 ;
638 [label="gini = 0.0\nsamples = 6\nvalue = [0, 10]\nclass = a", fillcolor="#399de5ff"] ;
636 -> 638 ;
639 [label="gini = 0.0\nsamples = 21\nvalue = [29, 0]\nclass = M", fillcolor="#e58139ff"] ;
635 -> 639 ;
640 [label="gini = 0.0\nsamples = 5\nvalue = [0, 9]\nclass = a", fillcolor="#399de5ff"] ;
634 -> 640 ;
641 [label="gini = 0.0\nsamples = 17\nvalue = [30, 0]\nclass = M", fillcolor="#e58139ff"] ;
633 -> 641 ;
642 [label="gini = 0.0\nsamples = 29\nvalue = [52, 0]\nclass = M", fillcolor="#e58139ff"] ;
626 -> 642 ;
643 [label="THICK <= 0.72\ngini = 0.47\nsamples = 57\nvalue = [56, 34]\nclass = M", fillcolor="#e5813964"] ;
491 -> 643 ;
644 [label="THICK <= 0.72\ngini = 0.35\nsamples = 18\nvalue = [7, 24]\nclass = a", fillcolor="#399de5b5"] ;
643 -> 644 ;
645 [label="ACS3.Gmp_Parameters_ToolUpper_GrindingRunningMeter <= 591.91\ngini = 0.48\nsamples = 11\nvalue = [7, 11]\nclass = a", fillcolor="#399de55d"] ;
644 -> 645 ;
646 [label="ACS3.Gmp_Parameters_ToolUpper_GrindingRunningMeter <= 407.34\ngini = 0.26\nsamples = 7\nvalue = [2, 11]\nclass = a", fillcolor="#399de5d1"] ;
645 -> 646 ;
647 [label="gini = 0.0\nsamples = 1\nvalue = [2, 0]\nclass = M", fillcolor="#e58139ff"] ;
646 -> 647 ;
648 [label="gini = 0.0\nsamples = 6\nvalue = [0, 11]\nclass = a", fillcolor="#399de5ff"] ;
646 -> 648 ;
649 [label="gini = 0.0\nsamples = 4\nvalue = [5, 0]\nclass = M", fillcolor="#e58139ff"] ;
645 -> 649 ;
650 [label="gini = 0.0\nsamples = 7\nvalue = [0, 13]\nclass = a", fillcolor="#399de5ff"] ;
644 -> 650 ;
651 [label="ACS3.Gmp_Parameters_ToolUpper_GrindingRunningMeter <= 517.39\ngini = 0.28\nsamples = 39\nvalue = [49, 10]\nclass = M", fillcolor="#e58139cb"] ;
643 -> 651 ;
652 [label="gini = 0.0\nsamples = 16\nvalue = [25, 0]\nclass = M", fillcolor="#e58139ff"] ;
651 -> 652 ;
653 [label="ACS3.Gmp_Parameters_ToolUpper_GrindingRunningMeter <= 552.33\ngini = 0.42\nsamples = 23\nvalue = [24, 10]\nclass = M", fillcolor="#e5813995"] ;
651 -> 653 ;
654 [label="gini = 0.0\nsamples = 6\nvalue = [0, 10]\nclass = a", fillcolor="#399de5ff"] ;
653 -> 654 ;
655 [label="gini = 0.0\nsamples = 17\nvalue = [24, 0]\nclass = M", fillcolor="#e58139ff"] ;
653 -> 655 ;
656 [label="THICK <= 0.73\ngini = 0.48\nsamples = 256\nvalue = [231, 157]\nclass = M", fillcolor="#e5813952"] ;
294 -> 656 ;
657 [label="ACS3.Gmp_Parameters_ToolUpper_GrindingRunningMeter <= 590.35\ngini = 0.38\nsamples = 46\nvalue = [16, 47]\nclass = a", fillcolor="#399de5a8"] ;
656 -> 657 ;
658 [label="THICK <= 0.73\ngini = 0.49\nsamples = 27\nvalue = [16, 22]\nclass = a", fillcolor="#399de546"] ;
657 -> 658 ;
659 [label="ACS3.Gmp_Parameters_ToolUpper_GrindingRunningMeter <= 326.81\ngini = 0.5\nsamples = 23\nvalue = [16, 16]\nclass = M", fillcolor="#e5813900"] ;
658 -> 659 ;
660 [label="gini = 0.0\nsamples = 1\nvalue = [0, 2]\nclass = a", fillcolor="#399de5ff"] ;
659 -> 660 ;
661 [label="Grindhead <= 1.5\ngini = 0.5\nsamples = 22\nvalue = [16, 14]\nclass = M", fillcolor="#e5813920"] ;
659 -> 661 ;
662 [label="gini = 0.0\nsamples = 9\nvalue = [0, 14]\nclass = a", fillcolor="#399de5ff"] ;
661 -> 662 ;
663 [label="gini = 0.0\nsamples = 13\nvalue = [16, 0]\nclass = M", fillcolor="#e58139ff"] ;
661 -> 663 ;
664 [label="gini = 0.0\nsamples = 4\nvalue = [0, 6]\nclass = a", fillcolor="#399de5ff"] ;
658 -> 664 ;
665 [label="gini = 0.0\nsamples = 19\nvalue = [0, 25]\nclass = a", fillcolor="#399de5ff"] ;
657 -> 665 ;
666 [label="THICK <= 0.73\ngini = 0.45\nsamples = 210\nvalue = [215, 110]\nclass = M", fillcolor="#e581397d"] ;
656 -> 666 ;
667 [label="Grindhead <= 1.5\ngini = 0.42\nsamples = 187\nvalue = [199, 87]\nclass = M", fillcolor="#e5813990"] ;
666 -> 667 ;
668 [label="THICK <= 0.73\ngini = 0.2\nsamples = 109\nvalue = [150, 19]\nclass = M", fillcolor="#e58139df"] ;
667 -> 668 ;
669 [label="THICK <= 0.73\ngini = 0.11\nsamples = 84\nvalue = [125, 8]\nclass = M", fillcolor="#e58139ef"] ;
668 -> 669 ;
670 [label="THICK <= 0.73\ngini = 0.35\nsamples = 22\nvalue = [27, 8]\nclass = M", fillcolor="#e58139b3"] ;
669 -> 670 ;
671 [label="gini = 0.0\nsamples = 17\nvalue = [26, 0]\nclass = M", fillcolor="#e58139ff"] ;
670 -> 671 ;
672 [label="ACS3.Gmp_Parameters_ToolUpper_GrindingRunningMeter <= 818.18\ngini = 0.2\nsamples = 5\nvalue = [1, 8]\nclass = a", fillcolor="#399de5df"] ;
670 -> 672 ;
673 [label="gini = 0.0\nsamples = 4\nvalue = [0, 8]\nclass = a", fillcolor="#399de5ff"] ;
672 -> 673 ;
674 [label="gini = 0.0\nsamples = 1\nvalue = [1, 0]\nclass = M", fillcolor="#e58139ff"] ;
672 -> 674 ;
675 [label="gini = 0.0\nsamples = 62\nvalue = [98, 0]\nclass = M", fillcolor="#e58139ff"] ;
669 -> 675 ;
676 [label="THICK <= 0.73\ngini = 0.42\nsamples = 25\nvalue = [25, 11]\nclass = M", fillcolor="#e581398f"] ;
668 -> 676 ;
677 [label="ACS3.Gmp_Parameters_ToolUpper_GrindingRunningMeter <= 595.05\ngini = 0.38\nsamples = 9\nvalue = [3, 9]\nclass = a", fillcolor="#399de5aa"] ;
676 -> 677 ;
678 [label="gini = 0.0\nsamples = 7\nvalue = [0, 9]\nclass = a", fillcolor="#399de5ff"] ;
677 -> 678 ;
679 [label="gini = 0.0\nsamples = 2\nvalue = [3, 0]\nclass = M", fillcolor="#e58139ff"] ;
677 -> 679 ;
680 [label="THICK <= 0.73\ngini = 0.15\nsamples = 16\nvalue = [22, 2]\nclass = M", fillcolor="#e58139e8"] ;
676 -> 680 ;
681 [label="gini = 0.0\nsamples = 14\nvalue = [22, 0]\nclass = M", fillcolor="#e58139ff"] ;
680 -> 681 ;
682 [label="gini = 0.0\nsamples = 2\nvalue = [0, 2]\nclass = a", fillcolor="#399de5ff"] ;
680 -> 682 ;
683 [label="ACS3.Gmp_Parameters_ToolUpper_GrindingRunningMeter <= 883.45\ngini = 0.49\nsamples = 78\nvalue = [49, 68]\nclass = a", fillcolor="#399de547"] ;
667 -> 683 ;
684 [label="THICK <= 0.73\ngini = 0.5\nsamples = 66\nvalue = [49, 49]\nclass = M", fillcolor="#e5813900"] ;
683 -> 684 ;
685 [label="ACS3.Gmp_Parameters_ToolUpper_GrindingRunningMeter <= 842.08\ngini = 0.43\nsamples = 48\nvalue = [23, 49]\nclass = a", fillcolor="#399de587"] ;
684 -> 685 ;
686 [label="ACS3.Gmp_Parameters_ToolUpper_GrindingRunningMeter <= 425.89\ngini = 0.33\nsamples = 42\nvalue = [13, 49]\nclass = a", fillcolor="#399de5bb"] ;
685 -> 686 ;
687 [label="THICK <= 0.73\ngini = 0.5\nsamples = 15\nvalue = [11, 13]\nclass = a", fillcolor="#399de527"] ;
686 -> 687 ;
688 [label="gini = 0.0\nsamples = 8\nvalue = [11, 0]\nclass = M", fillcolor="#e58139ff"] ;
687 -> 688 ;
689 [label="gini = 0.0\nsamples = 7\nvalue = [0, 13]\nclass = a", fillcolor="#399de5ff"] ;
687 -> 689 ;
690 [label="ACS3.Gmp_Parameters_ToolUpper_GrindingRunningMeter <= 666.71\ngini = 0.1\nsamples = 27\nvalue = [2, 36]\nclass = a", fillcolor="#399de5f1"] ;
686 -> 690 ;
691 [label="gini = 0.0\nsamples = 20\nvalue = [0, 25]\nclass = a", fillcolor="#399de5ff"] ;
690 -> 691 ;
692 [label="THICK <= 0.73\ngini = 0.26\nsamples = 7\nvalue = [2, 11]\nclass = a", fillcolor="#399de5d1"] ;
690 -> 692 ;
693 [label="gini = 0.0\nsamples = 5\nvalue = [0, 11]\nclass = a", fillcolor="#399de5ff"] ;
692 -> 693 ;
694 [label="gini = 0.0\nsamples = 2\nvalue = [2, 0]\nclass = M", fillcolor="#e58139ff"] ;
692 -> 694 ;
695 [label="gini = 0.0\nsamples = 6\nvalue = [10, 0]\nclass = M", fillcolor="#e58139ff"] ;
685 -> 695 ;
696 [label="gini = 0.0\nsamples = 18\nvalue = [26, 0]\nclass = M", fillcolor="#e58139ff"] ;
684 -> 696 ;
697 [label="gini = 0.0\nsamples = 12\nvalue = [0, 19]\nclass = a", fillcolor="#399de5ff"] ;
683 -> 697 ;
698 [label="ACS3.Gmp_Parameters_ToolUpper_GrindingRunningMeter <= 679.95\ngini = 0.48\nsamples = 23\nvalue = [16, 23]\nclass = a", fillcolor="#399de54e"] ;
666 -> 698 ;
699 [label="Grindhead <= 1.5\ngini = 0.36\nsamples = 15\nvalue = [6, 20]\nclass = a", fillcolor="#399de5b3"] ;
698 -> 699 ;
700 [label="THICK <= 0.73\ngini = 0.5\nsamples = 8\nvalue = [6, 7]\nclass = a", fillcolor="#399de524"] ;
699 -> 700 ;
701 [label="gini = 0.0\nsamples = 5\nvalue = [0, 7]\nclass = a", fillcolor="#399de5ff"] ;
700 -> 701 ;
702 [label="gini = 0.0\nsamples = 3\nvalue = [6, 0]\nclass = M", fillcolor="#e58139ff"] ;
700 -> 702 ;
703 [label="gini = 0.0\nsamples = 7\nvalue = [0, 13]\nclass = a", fillcolor="#399de5ff"] ;
699 -> 703 ;
704 [label="ACS3.Gmp_Parameters_ToolUpper_GrindingRunningMeter <= 1192.74\ngini = 0.36\nsamples = 8\nvalue = [10, 3]\nclass = M", fillcolor="#e58139b3"] ;
698 -> 704 ;
705 [label="gini = 0.0\nsamples = 3\nvalue = [6, 0]\nclass = M", fillcolor="#e58139ff"] ;
704 -> 705 ;
706 [label="ACS3.Gmp_Parameters_ToolUpper_GrindingRunningMeter <= 1224.01\ngini = 0.49\nsamples = 5\nvalue = [4, 3]\nclass = M", fillcolor="#e5813940"] ;
704 -> 706 ;
707 [label="gini = 0.0\nsamples = 3\nvalue = [0, 3]\nclass = a", fillcolor="#399de5ff"] ;
706 -> 707 ;
708 [label="gini = 0.0\nsamples = 2\nvalue = [4, 0]\nclass = M", fillcolor="#e58139ff"] ;
706 -> 708 ;
709 [label="THICK <= 0.68\ngini = 0.12\nsamples = 93\nvalue = [150, 10]\nclass = M", fillcolor="#e58139ee"] ;
293 -> 709 ;
710 [label="THICK <= 0.64\ngini = 0.06\nsamples = 82\nvalue = [136, 4]\nclass = M", fillcolor="#e58139f8"] ;
709 -> 710 ;
711 [label="gini = 0.0\nsamples = 49\nvalue = [92, 0]\nclass = M", fillcolor="#e58139ff"] ;
710 -> 711 ;
712 [label="THICK <= 0.64\ngini = 0.15\nsamples = 33\nvalue = [44, 4]\nclass = M", fillcolor="#e58139e8"] ;
710 -> 712 ;
713 [label="ACS3.Gmp_Parameters_ToolUpper_GrindingRunningMeter <= 1290.2\ngini = 0.32\nsamples = 5\nvalue = [1, 4]\nclass = a", fillcolor="#399de5bf"] ;
712 -> 713 ;
714 [label="gini = 0.0\nsamples = 3\nvalue = [0, 3]\nclass = a", fillcolor="#399de5ff"] ;
713 -> 714 ;
715 [label="THICK <= 0.64\ngini = 0.5\nsamples = 2\nvalue = [1, 1]\nclass = M", fillcolor="#e5813900"] ;
713 -> 715 ;
716 [label="gini = 0.0\nsamples = 1\nvalue = [0, 1]\nclass = a", fillcolor="#399de5ff"] ;
715 -> 716 ;
717 [label="gini = 0.0\nsamples = 1\nvalue = [1, 0]\nclass = M", fillcolor="#e58139ff"] ;
715 -> 717 ;
718 [label="gini = 0.0\nsamples = 28\nvalue = [43, 0]\nclass = M", fillcolor="#e58139ff"] ;
712 -> 718 ;
719 [label="THICK <= 0.68\ngini = 0.42\nsamples = 11\nvalue = [14, 6]\nclass = M", fillcolor="#e5813992"] ;
709 -> 719 ;
720 [label="THICK <= 0.68\ngini = 0.5\nsamples = 6\nvalue = [5, 6]\nclass = a", fillcolor="#399de52a"] ;
719 -> 720 ;
721 [label="gini = 0.0\nsamples = 2\nvalue = [0, 2]\nclass = a", fillcolor="#399de5ff"] ;
720 -> 721 ;
722 [label="ACS3.Gmp_Parameters_ToolUpper_GrindingRunningMeter <= 1247.76\ngini = 0.49\nsamples = 4\nvalue = [5, 4]\nclass = M", fillcolor="#e5813933"] ;
720 -> 722 ;
723 [label="gini = 0.0\nsamples = 2\nvalue = [0, 4]\nclass = a", fillcolor="#399de5ff"] ;
722 -> 723 ;
724 [label="gini = 0.0\nsamples = 2\nvalue = [5, 0]\nclass = M", fillcolor="#e58139ff"] ;
722 -> 724 ;
725 [label="gini = 0.0\nsamples = 5\nvalue = [9, 0]\nclass = M", fillcolor="#e58139ff"] ;
719 -> 725 ;
726 [label="ACS3.Gmp_Parameters_ToolUpper_GrindingRunningMeter <= 1320.6\ngini = 0.47\nsamples = 58\nvalue = [64, 39]\nclass = M", fillcolor="#e5813964"] ;
292 -> 726 ;
727 [label="THICK <= 0.64\ngini = 0.36\nsamples = 19\nvalue = [9, 29]\nclass = a", fillcolor="#399de5b0"] ;
726 -> 727 ;
728 [label="gini = 0.0\nsamples = 2\nvalue = [5, 0]\nclass = M", fillcolor="#e58139ff"] ;
727 -> 728 ;
729 [label="THICK <= 0.68\ngini = 0.21\nsamples = 17\nvalue = [4, 29]\nclass = a", fillcolor="#399de5dc"] ;
727 -> 729 ;
730 [label="THICK <= 0.64\ngini = 0.17\nsamples = 16\nvalue = [3, 29]\nclass = a", fillcolor="#399de5e5"] ;
729 -> 730 ;
731 [label="ACS3.Gmp_Parameters_ToolUpper_GrindingRunningMeter <= 1318.53\ngini = 0.38\nsamples = 5\nvalue = [3, 9]\nclass = a", fillcolor="#399de5aa"] ;
730 -> 731 ;
732 [label="gini = 0.0\nsamples = 4\nvalue = [0, 9]\nclass = a", fillcolor="#399de5ff"] ;
731 -> 732 ;
733 [label="gini = 0.0\nsamples = 1\nvalue = [3, 0]\nclass = M", fillcolor="#e58139ff"] ;
731 -> 733 ;
734 [label="gini = 0.0\nsamples = 11\nvalue = [0, 20]\nclass = a", fillcolor="#399de5ff"] ;
730 -> 734 ;
735 [label="gini = 0.0\nsamples = 1\nvalue = [1, 0]\nclass = M", fillcolor="#e58139ff"] ;
729 -> 735 ;
736 [label="ACS3.Gmp_Parameters_ToolUpper_GrindingRunningMeter <= 1356.4\ngini = 0.26\nsamples = 39\nvalue = [55, 10]\nclass = M", fillcolor="#e58139d1"] ;
726 -> 736 ;
737 [label="gini = 0.0\nsamples = 17\nvalue = [29, 0]\nclass = M", fillcolor="#e58139ff"] ;
736 -> 737 ;
738 [label="Grindhead <= 1.5\ngini = 0.4\nsamples = 22\nvalue = [26, 10]\nclass = M", fillcolor="#e581399d"] ;
736 -> 738 ;
739 [label="gini = 0.0\nsamples = 6\nvalue = [0, 9]\nclass = a", fillcolor="#399de5ff"] ;
738 -> 739 ;
740 [label="ACS3.Gmp_Parameters_ToolUpper_GrindingRunningMeter <= 1398.83\ngini = 0.07\nsamples = 16\nvalue = [26, 1]\nclass = M", fillcolor="#e58139f5"] ;
738 -> 740 ;
741 [label="gini = 0.0\nsamples = 15\nvalue = [26, 0]\nclass = M", fillcolor="#e58139ff"] ;
740 -> 741 ;
742 [label="gini = 0.0\nsamples = 1\nvalue = [0, 1]\nclass = a", fillcolor="#399de5ff"] ;
740 -> 742 ;
743 [label="ACS3.Gmp_Parameters_ToolUpper_GrindingRunningMeter <= 471.78\ngini = 0.07\nsamples = 423\nvalue = [652, 25]\nclass = M", fillcolor="#e58139f5"] ;
291 -> 743 ;
744 [label="Grindhead <= 1.5\ngini = 0.17\nsamples = 97\nvalue = [148, 15]\nclass = M", fillcolor="#e58139e5"] ;
743 -> 744 ;
745 [label="gini = 0.0\nsamples = 48\nvalue = [79, 0]\nclass = M", fillcolor="#e58139ff"] ;
744 -> 745 ;
746 [label="THICK <= 0.74\ngini = 0.29\nsamples = 49\nvalue = [69, 15]\nclass = M", fillcolor="#e58139c8"] ;
744 -> 746 ;
747 [label="gini = 0.0\nsamples = 8\nvalue = [0, 15]\nclass = a", fillcolor="#399de5ff"] ;
746 -> 747 ;
748 [label="gini = 0.0\nsamples = 41\nvalue = [69, 0]\nclass = M", fillcolor="#e58139ff"] ;
746 -> 748 ;
749 [label="THICK <= 0.73\ngini = 0.04\nsamples = 326\nvalue = [504, 10]\nclass = M", fillcolor="#e58139fa"] ;
743 -> 749 ;
750 [label="ACS3.Gmp_Parameters_ToolUpper_GrindingRunningMeter <= 1163.31\ngini = 0.11\nsamples = 109\nvalue = [154, 10]\nclass = M", fillcolor="#e58139ee"] ;
749 -> 750 ;
751 [label="THICK <= 0.73\ngini = 0.02\nsamples = 62\nvalue = [91, 1]\nclass = M", fillcolor="#e58139fc"] ;
750 -> 751 ;
752 [label="ACS3.Gmp_Parameters_ToolUpper_GrindingRunningMeter <= 893.95\ngini = 0.38\nsamples = 4\nvalue = [3, 1]\nclass = M", fillcolor="#e58139aa"] ;
751 -> 752 ;
753 [label="gini = 0.0\nsamples = 1\nvalue = [0, 1]\nclass = a", fillcolor="#399de5ff"] ;
752 -> 753 ;
754 [label="gini = 0.0\nsamples = 3\nvalue = [3, 0]\nclass = M", fillcolor="#e58139ff"] ;
752 -> 754 ;
755 [label="gini = 0.0\nsamples = 58\nvalue = [88, 0]\nclass = M", fillcolor="#e58139ff"] ;
751 -> 755 ;
756 [label="ACS3.Gmp_Parameters_ToolUpper_GrindingRunningMeter <= 1194.71\ngini = 0.22\nsamples = 47\nvalue = [63, 9]\nclass = M", fillcolor="#e58139db"] ;
750 -> 756 ;
757 [label="Grindhead <= 1.5\ngini = 0.43\nsamples = 9\nvalue = [4, 9]\nclass = a", fillcolor="#399de58e"] ;
756 -> 757 ;
758 [label="gini = 0.0\nsamples = 2\nvalue = [4, 0]\nclass = M", fillcolor="#e58139ff"] ;
757 -> 758 ;
759 [label="gini = 0.0\nsamples = 7\nvalue = [0, 9]\nclass = a", fillcolor="#399de5ff"] ;
757 -> 759 ;
760 [label="gini = 0.0\nsamples = 38\nvalue = [59, 0]\nclass = M", fillcolor="#e58139ff"] ;
756 -> 760 ;
761 [label="gini = 0.0\nsamples = 217\nvalue = [350, 0]\nclass = M", fillcolor="#e58139ff"] ;
749 -> 761 ;
762 [label="ACS3.Gmp_Parameters_ToolUpper_GrindingRunningMeter <= 30.66\ngini = 0.24\nsamples = 4739\nvalue = [6462, 1036]\nclass = M", fillcolor="#e58139d6"] ;
0 -> 762 [labeldistance=2.5, labelangle=-45, headlabel="False"] ;
763 [label="Grindhead <= 3.5\ngini = 0.44\nsamples = 365\nvalue = [397, 191]\nclass = M", fillcolor="#e5813984"] ;
762 -> 763 ;
764 [label="ACS3.Gmp_Parameters_ToolUpper_GrindingRunningMeter <= 6.93\ngini = 0.33\nsamples = 174\nvalue = [229, 60]\nclass = M", fillcolor="#e58139bc"] ;
763 -> 764 ;
765 [label="THICK <= 1.0\ngini = 0.09\nsamples = 77\nvalue = [124, 6]\nclass = M", fillcolor="#e58139f3"] ;
764 -> 765 ;
766 [label="gini = 0.0\nsamples = 73\nvalue = [124, 0]\nclass = M", fillcolor="#e58139ff"] ;
765 -> 766 ;
767 [label="gini = 0.0\nsamples = 4\nvalue = [0, 6]\nclass = a", fillcolor="#399de5ff"] ;
765 -> 767 ;
768 [label="ACS3.Gmp_Parameters_ToolUpper_GrindingRunningMeter <= 9.96\ngini = 0.45\nsamples = 97\nvalue = [105, 54]\nclass = M", fillcolor="#e581397c"] ;
764 -> 768 ;
769 [label="THICK <= 1.0\ngini = 0.49\nsamples = 21\nvalue = [16, 21]\nclass = a", fillcolor="#399de53d"] ;
768 -> 769 ;
770 [label="ACS3.Gmp_Parameters_ToolUpper_GrindingRunningMeter <= 7.73\ngini = 0.5\nsamples = 19\nvalue = [16, 16]\nclass = M", fillcolor="#e5813900"] ;
769 -> 770 ;
771 [label="THICK <= 0.89\ngini = 0.49\nsamples = 9\nvalue = [8, 6]\nclass = M", fillcolor="#e5813940"] ;
770 -> 771 ;
772 [label="THICK <= 0.87\ngini = 0.24\nsamples = 3\nvalue = [1, 6]\nclass = a", fillcolor="#399de5d4"] ;
771 -> 772 ;
773 [label="gini = 0.0\nsamples = 1\nvalue = [1, 0]\nclass = M", fillcolor="#e58139ff"] ;
772 -> 773 ;
774 [label="gini = 0.0\nsamples = 2\nvalue = [0, 6]\nclass = a", fillcolor="#399de5ff"] ;
772 -> 774 ;
775 [label="gini = 0.0\nsamples = 6\nvalue = [7, 0]\nclass = M", fillcolor="#e58139ff"] ;
771 -> 775 ;
776 [label="ACS3.Gmp_Parameters_ToolUpper_GrindingRunningMeter <= 8.46\ngini = 0.49\nsamples = 10\nvalue = [8, 10]\nclass = a", fillcolor="#399de533"] ;
770 -> 776 ;
777 [label="gini = 0.0\nsamples = 1\nvalue = [0, 3]\nclass = a", fillcolor="#399de5ff"] ;
776 -> 777 ;
778 [label="THICK <= 0.94\ngini = 0.5\nsamples = 9\nvalue = [8, 7]\nclass = M", fillcolor="#e5813920"] ;
776 -> 778 ;
779 [label="THICK <= 0.87\ngini = 0.46\nsamples = 6\nvalue = [4, 7]\nclass = a", fillcolor="#399de56d"] ;
778 -> 779 ;
780 [label="gini = 0.0\nsamples = 1\nvalue = [2, 0]\nclass = M", fillcolor="#e58139ff"] ;
779 -> 780 ;
781 [label="THICK <= 0.89\ngini = 0.35\nsamples = 5\nvalue = [2, 7]\nclass = a", fillcolor="#399de5b6"] ;
779 -> 781 ;
782 [label="gini = 0.0\nsamples = 3\nvalue = [0, 5]\nclass = a", fillcolor="#399de5ff"] ;
781 -> 782 ;
783 [label="THICK <= 0.92\ngini = 0.5\nsamples = 2\nvalue = [2, 2]\nclass = M", fillcolor="#e5813900"] ;
781 -> 783 ;
784 [label="gini = 0.0\nsamples = 1\nvalue = [2, 0]\nclass = M", fillcolor="#e58139ff"] ;
783 -> 784 ;
785 [label="gini = 0.0\nsamples = 1\nvalue = [0, 2]\nclass = a", fillcolor="#399de5ff"] ;
783 -> 785 ;
786 [label="gini = 0.0\nsamples = 3\nvalue = [4, 0]\nclass = M", fillcolor="#e58139ff"] ;
778 -> 786 ;
787 [label="gini = 0.0\nsamples = 2\nvalue = [0, 5]\nclass = a", fillcolor="#399de5ff"] ;
769 -> 787 ;
788 [label="ACS3.Gmp_Parameters_ToolUpper_GrindingRunningMeter <= 11.53\ngini = 0.39\nsamples = 76\nvalue = [89, 33]\nclass = M", fillcolor="#e58139a0"] ;
768 -> 788 ;
